digraph Tree {
node [shape=box, fontname="helvetica"] ;
edge [fontname="helvetica"] ;
0 [label="sslfinal_state <= 0.5\ngini = 0.493\nsamples = 8305\nvalue = [3654, 4651]"] ;
1 [label="url_of_anchor <= -0.5\ngini = 0.207\nsamples = 3552\nvalue = [3135, 417]"] ;
0 -> 1 [labeldistance=2.5, labelangle=45, headlabel="True"] ;
2 [label="redirect <= -0.5\ngini = 0.007\nsamples = 2243\nvalue = [2235, 8]"] ;
1 -> 2 ;
3 [label="gini = 0.0\nsamples = 8\nvalue = [0, 8]"] ;
2 -> 3 ;
4 [label="gini = 0.0\nsamples = 2235\nvalue = [2235, 0]"] ;
2 -> 4 ;
5 [label="links_in_tags <= -0.5\ngini = 0.43\nsamples = 1309\nvalue = [900, 409]"] ;
1 -> 5 ;
6 [label="prefix_suffix <= 0.0\ngini = 0.225\nsamples = 682\nvalue = [594, 88]"] ;
5 -> 6 ;
7 [label="web_traffic <= 0.5\ngini = 0.193\nsamples = 666\nvalue = [594, 72]"] ;
6 -> 7 ;
8 [label="https_token <= 0.0\ngini = 0.11\nsamples = 341\nvalue = [321, 20]"] ;
7 -> 8 ;
9 [label="domain_registration_length <= 0.0\ngini = 0.301\nsamples = 38\nvalue = [31, 7]"] ;
8 -> 9 ;
10 [label="gini = 0.0\nsamples = 23\nvalue = [23, 0]"] ;
9 -> 10 ;
11 [label="url_length <= -0.5\ngini = 0.498\nsamples = 15\nvalue = [8, 7]"] ;
9 -> 11 ;
12 [label="having_ip_address <= 0.0\ngini = 0.346\nsamples = 9\nvalue = [2, 7]"] ;
11 -> 12 ;
13 [label="gini = 0.0\nsamples = 2\nvalue = [2, 0]"] ;
12 -> 13 ;
14 [label="gini = 0.0\nsamples = 7\nvalue = [0, 7]"] ;
12 -> 14 ;
15 [label="gini = 0.0\nsamples = 6\nvalue = [6, 0]"] ;
11 -> 15 ;
16 [label="having_sub_domain <= 0.5\ngini = 0.082\nsamples = 303\nvalue = [290, 13]"] ;
8 -> 16 ;
17 [label="request_url <= 0.0\ngini = 0.055\nsamples = 247\nvalue = [240, 7]"] ;
16 -> 17 ;
18 [label="gini = 0.0\nsamples = 153\nvalue = [153, 0]"] ;
17 -> 18 ;
19 [label="having_ip_address <= 0.0\ngini = 0.138\nsamples = 94\nvalue = [87, 7]"] ;
17 -> 19 ;
20 [label="gini = 0.0\nsamples = 31\nvalue = [31, 0]"] ;
19 -> 20 ;
21 [label="dnsrecord <= 0.0\ngini = 0.198\nsamples = 63\nvalue = [56, 7]"] ;
19 -> 21 ;
22 [label="gini = 0.0\nsamples = 22\nvalue = [22, 0]"] ;
21 -> 22 ;
23 [label="domain_registration_length <= 0.0\ngini = 0.283\nsamples = 41\nvalue = [34.0, 7.0]"] ;
21 -> 23 ;
24 [label="sfh <= -0.5\ngini = 0.365\nsamples = 25\nvalue = [19, 6]"] ;
23 -> 24 ;
25 [label="url_of_anchor <= 0.5\ngini = 0.432\nsamples = 19\nvalue = [13, 6]"] ;
24 -> 25 ;
26 [label="redirect <= 0.5\ngini = 0.469\nsamples = 16\nvalue = [10, 6]"] ;
25 -> 26 ;
27 [label="abnormal_url <= 0.0\ngini = 0.444\nsamples = 15\nvalue = [10, 5]"] ;
26 -> 27 ;
28 [label="gini = 0.0\nsamples = 2\nvalue = [2, 0]"] ;
27 -> 28 ;
29 [label="web_traffic <= -0.5\ngini = 0.473\nsamples = 13\nvalue = [8, 5]"] ;
27 -> 29 ;
30 [label="gini = 0.0\nsamples = 2\nvalue = [0, 2]"] ;
29 -> 30 ;
31 [label="age_of_domain <= 0.0\ngini = 0.397\nsamples = 11\nvalue = [8, 3]"] ;
29 -> 31 ;
32 [label="sslfinal_state <= -0.5\ngini = 0.444\nsamples = 9\nvalue = [6, 3]"] ;
31 -> 32 ;
33 [label="having_sub_domain <= -0.5\ngini = 0.469\nsamples = 8\nvalue = [5, 3]"] ;
32 -> 33 ;
34 [label="gini = 0.444\nsamples = 6\nvalue = [4, 2]"] ;
33 -> 34 ;
35 [label="gini = 0.5\nsamples = 2\nvalue = [1, 1]"] ;
33 -> 35 ;
36 [label="gini = 0.0\nsamples = 1\nvalue = [1, 0]"] ;
32 -> 36 ;
37 [label="gini = 0.0\nsamples = 2\nvalue = [2, 0]"] ;
31 -> 37 ;
38 [label="gini = 0.0\nsamples = 1\nvalue = [0, 1]"] ;
26 -> 38 ;
39 [label="gini = 0.0\nsamples = 3\nvalue = [3, 0]"] ;
25 -> 39 ;
40 [label="gini = 0.0\nsamples = 6\nvalue = [6, 0]"] ;
24 -> 40 ;
41 [label="sfh <= 0.5\ngini = 0.117\nsamples = 16\nvalue = [15, 1]"] ;
23 -> 41 ;
42 [label="gini = 0.0\nsamples = 14\nvalue = [14, 0]"] ;
41 -> 42 ;
43 [label="web_traffic <= -0.5\ngini = 0.5\nsamples = 2\nvalue = [1, 1]"] ;
41 -> 43 ;
44 [label="gini = 0.0\nsamples = 1\nvalue = [1, 0]"] ;
43 -> 44 ;
45 [label="gini = 0.0\nsamples = 1\nvalue = [0, 1]"] ;
43 -> 45 ;
46 [label="request_url <= 0.0\ngini = 0.191\nsamples = 56\nvalue = [50, 6]"] ;
16 -> 46 ;
47 [label="having_ip_address <= 0.0\ngini = 0.337\nsamples = 28\nvalue = [22, 6]"] ;
46 -> 47 ;
48 [label="sslfinal_state <= -0.5\ngini = 0.43\nsamples = 16\nvalue = [11, 5]"] ;
47 -> 48 ;
49 [label="web_traffic <= -0.5\ngini = 0.496\nsamples = 11\nvalue = [6, 5]"] ;
48 -> 49 ;
50 [label="gini = 0.0\nsamples = 1\nvalue = [0, 1]"] ;
49 -> 50 ;
51 [label="shortining_service <= 0.0\ngini = 0.48\nsamples = 10\nvalue = [6, 4]"] ;
49 -> 51 ;
52 [label="gini = 0.0\nsamples = 1\nvalue = [1, 0]"] ;
51 -> 52 ;
53 [label="having_at_symbol <= 0.0\ngini = 0.494\nsamples = 9\nvalue = [5, 4]"] ;
51 -> 53 ;
54 [label="gini = 0.0\nsamples = 1\nvalue = [0, 1]"] ;
53 -> 54 ;
55 [label="domain_registration_length <= 0.0\ngini = 0.469\nsamples = 8\nvalue = [5, 3]"] ;
53 -> 55 ;
56 [label="age_of_domain <= 0.0\ngini = 0.5\nsamples = 2\nvalue = [1, 1]"] ;
55 -> 56 ;
57 [label="gini = 0.0\nsamples = 1\nvalue = [0, 1]"] ;
56 -> 57 ;
58 [label="gini = 0.0\nsamples = 1\nvalue = [1, 0]"] ;
56 -> 58 ;
59 [label="age_of_domain <= 0.0\ngini = 0.444\nsamples = 6\nvalue = [4, 2]"] ;
55 -> 59 ;
60 [label="gini = 0.0\nsamples = 2\nvalue = [2, 0]"] ;
59 -> 60 ;
61 [label="gini = 0.5\nsamples = 4\nvalue = [2, 2]"] ;
59 -> 61 ;
62 [label="gini = 0.0\nsamples = 5\nvalue = [5, 0]"] ;
48 -> 62 ;
63 [label="web_traffic <= -0.5\ngini = 0.153\nsamples = 12\nvalue = [11, 1]"] ;
47 -> 63 ;
64 [label="age_of_domain <= 0.0\ngini = 0.278\nsamples = 6\nvalue = [5, 1]"] ;
63 -> 64 ;
65 [label="gini = 0.0\nsamples = 3\nvalue = [3, 0]"] ;
64 -> 65 ;
66 [label="domain_registration_length <= 0.0\ngini = 0.444\nsamples = 3\nvalue = [2, 1]"] ;
64 -> 66 ;
67 [label="gini = 0.0\nsamples = 1\nvalue = [1, 0]"] ;
66 -> 67 ;
68 [label="dnsrecord <= 0.0\ngini = 0.5\nsamples = 2\nvalue = [1, 1]"] ;
66 -> 68 ;
69 [label="gini = 0.0\nsamples = 1\nvalue = [1, 0]"] ;
68 -> 69 ;
70 [label="gini = 0.0\nsamples = 1\nvalue = [0, 1]"] ;
68 -> 70 ;
71 [label="gini = 0.0\nsamples = 6\nvalue = [6, 0]"] ;
63 -> 71 ;
72 [label="gini = 0.0\nsamples = 28\nvalue = [28, 0]"] ;
46 -> 72 ;
73 [label="url_length <= 0.5\ngini = 0.269\nsamples = 325\nvalue = [273, 52]"] ;
7 -> 73 ;
74 [label="redirect <= -0.5\ngini = 0.253\nsamples = 316\nvalue = [269.0, 47.0]"] ;
73 -> 74 ;
75 [label="gini = 0.0\nsamples = 2\nvalue = [0, 2]"] ;
74 -> 75 ;
76 [label="having_ip_address <= 0.0\ngini = 0.246\nsamples = 314\nvalue = [269, 45]"] ;
74 -> 76 ;
77 [label="request_url <= 0.0\ngini = 0.148\nsamples = 124\nvalue = [114, 10]"] ;
76 -> 77 ;
78 [label="age_of_domain <= 0.0\ngini = 0.224\nsamples = 78\nvalue = [68, 10]"] ;
77 -> 78 ;
79 [label="https_token <= 0.0\ngini = 0.346\nsamples = 36\nvalue = [28, 8]"] ;
78 -> 79 ;
80 [label="gini = 0.0\nsamples = 10\nvalue = [10, 0]"] ;
79 -> 80 ;
81 [label="sfh <= -0.5\ngini = 0.426\nsamples = 26\nvalue = [18, 8]"] ;
79 -> 81 ;
82 [label="redirect <= 0.5\ngini = 0.403\nsamples = 25\nvalue = [18.0, 7.0]"] ;
81 -> 82 ;
83 [label="domain_registration_length <= 0.0\ngini = 0.444\nsamples = 21\nvalue = [14, 7]"] ;
82 -> 83 ;
84 [label="gini = 0.0\nsamples = 3\nvalue = [3, 0]"] ;
83 -> 84 ;
85 [label="sslfinal_state <= -0.5\ngini = 0.475\nsamples = 18\nvalue = [11, 7]"] ;
83 -> 85 ;
86 [label="favicon <= 0.0\ngini = 0.484\nsamples = 17\nvalue = [10, 7]"] ;
85 -> 86 ;
87 [label="gini = 0.0\nsamples = 1\nvalue = [1, 0]"] ;
86 -> 87 ;
88 [label="having_at_symbol <= 0.0\ngini = 0.492\nsamples = 16\nvalue = [9, 7]"] ;
86 -> 88 ;
89 [label="gini = 0.0\nsamples = 1\nvalue = [0, 1]"] ;
88 -> 89 ;
90 [label="having_sub_domain <= -0.5\ngini = 0.48\nsamples = 15\nvalue = [9, 6]"] ;
88 -> 90 ;
91 [label="gini = 0.5\nsamples = 2\nvalue = [1, 1]"] ;
90 -> 91 ;
92 [label="gini = 0.473\nsamples = 13\nvalue = [8, 5]"] ;
90 -> 92 ;
93 [label="gini = 0.0\nsamples = 1\nvalue = [1, 0]"] ;
85 -> 93 ;
94 [label="gini = 0.0\nsamples = 4\nvalue = [4, 0]"] ;
82 -> 94 ;
95 [label="gini = 0.0\nsamples = 1\nvalue = [0, 1]"] ;
81 -> 95 ;
96 [label="having_at_symbol <= 0.0\ngini = 0.091\nsamples = 42\nvalue = [40, 2]"] ;
78 -> 96 ;
97 [label="port <= 0.0\ngini = 0.278\nsamples = 6\nvalue = [5, 1]"] ;
96 -> 97 ;
98 [label="gini = 0.0\nsamples = 3\nvalue = [3, 0]"] ;
97 -> 98 ;
99 [label="having_sub_domain <= 0.5\ngini = 0.444\nsamples = 3\nvalue = [2, 1]"] ;
97 -> 99 ;
100 [label="gini = 0.0\nsamples = 1\nvalue = [1, 0]"] ;
99 -> 100 ;
101 [label="gini = 0.5\nsamples = 2\nvalue = [1, 1]"] ;
99 -> 101 ;
102 [label="having_sub_domain <= 0.5\ngini = 0.054\nsamples = 36\nvalue = [35, 1]"] ;
96 -> 102 ;
103 [label="gini = 0.0\nsamples = 17\nvalue = [17, 0]"] ;
102 -> 103 ;
104 [label="domain_registration_length <= 0.0\ngini = 0.1\nsamples = 19\nvalue = [18, 1]"] ;
102 -> 104 ;
105 [label="gini = 0.0\nsamples = 7\nvalue = [7, 0]"] ;
104 -> 105 ;
106 [label="https_token <= 0.0\ngini = 0.153\nsamples = 12\nvalue = [11, 1]"] ;
104 -> 106 ;
107 [label="gini = 0.0\nsamples = 2\nvalue = [2, 0]"] ;
106 -> 107 ;
108 [label="gini = 0.18\nsamples = 10\nvalue = [9, 1]"] ;
106 -> 108 ;
109 [label="gini = 0.0\nsamples = 46\nvalue = [46, 0]"] ;
77 -> 109 ;
110 [label="having_sub_domain <= -0.5\ngini = 0.301\nsamples = 190\nvalue = [155, 35]"] ;
76 -> 110 ;
111 [label="age_of_domain <= 0.0\ngini = 0.178\nsamples = 81\nvalue = [73, 8]"] ;
110 -> 111 ;
112 [label="request_url <= 0.0\ngini = 0.04\nsamples = 49\nvalue = [48.0, 1.0]"] ;
111 -> 112 ;
113 [label="gini = 0.0\nsamples = 31\nvalue = [31, 0]"] ;
112 -> 113 ;
114 [label="dnsrecord <= 0.0\ngini = 0.105\nsamples = 18\nvalue = [17, 1]"] ;
112 -> 114 ;
115 [label="gini = 0.0\nsamples = 9\nvalue = [9, 0]"] ;
114 -> 115 ;
116 [label="sslfinal_state <= -0.5\ngini = 0.198\nsamples = 9\nvalue = [8, 1]"] ;
114 -> 116 ;
117 [label="domain_registration_length <= 0.0\ngini = 0.32\nsamples = 5\nvalue = [4, 1]"] ;
116 -> 117 ;
118 [label="gini = 0.0\nsamples = 3\nvalue = [3, 0]"] ;
117 -> 118 ;
119 [label="gini = 0.5\nsamples = 2\nvalue = [1, 1]"] ;
117 -> 119 ;
120 [label="gini = 0.0\nsamples = 4\nvalue = [4, 0]"] ;
116 -> 120 ;
121 [label="port <= 0.0\ngini = 0.342\nsamples = 32\nvalue = [25, 7]"] ;
111 -> 121 ;
122 [label="iframe <= 0.0\ngini = 0.444\nsamples = 3\nvalue = [1, 2]"] ;
121 -> 122 ;
123 [label="gini = 0.0\nsamples = 1\nvalue = [1, 0]"] ;
122 -> 123 ;
124 [label="gini = 0.0\nsamples = 2\nvalue = [0, 2]"] ;
122 -> 124 ;
125 [label="request_url <= 0.0\ngini = 0.285\nsamples = 29\nvalue = [24, 5]"] ;
121 -> 125 ;
126 [label="domain_registration_length <= 0.0\ngini = 0.473\nsamples = 13\nvalue = [8, 5]"] ;
125 -> 126 ;
127 [label="gini = 0.0\nsamples = 3\nvalue = [3, 0]"] ;
126 -> 127 ;
128 [label="url_of_anchor <= 0.5\ngini = 0.5\nsamples = 10\nvalue = [5, 5]"] ;
126 -> 128 ;
129 [label="dnsrecord <= 0.0\ngini = 0.494\nsamples = 9\nvalue = [4, 5]"] ;
128 -> 129 ;
130 [label="gini = 0.5\nsamples = 6\nvalue = [3, 3]"] ;
129 -> 130 ;
131 [label="gini = 0.444\nsamples = 3\nvalue = [1, 2]"] ;
129 -> 131 ;
132 [label="gini = 0.0\nsamples = 1\nvalue = [1, 0]"] ;
128 -> 132 ;
133 [label="gini = 0.0\nsamples = 16\nvalue = [16, 0]"] ;
125 -> 133 ;
134 [label="request_url <= 0.0\ngini = 0.373\nsamples = 109\nvalue = [82, 27]"] ;
110 -> 134 ;
135 [label="dnsrecord <= 0.0\ngini = 0.274\nsamples = 61\nvalue = [51, 10]"] ;
134 -> 135 ;
136 [label="having_sub_domain <= 0.5\ngini = 0.454\nsamples = 23\nvalue = [15, 8]"] ;
135 -> 136 ;
137 [label="age_of_domain <= 0.0\ngini = 0.48\nsamples = 10\nvalue = [4, 6]"] ;
136 -> 137 ;
138 [label="gini = 0.48\nsamples = 5\nvalue = [2, 3]"] ;
137 -> 138 ;
139 [label="gini = 0.48\nsamples = 5\nvalue = [2, 3]"] ;
137 -> 139 ;
140 [label="age_of_domain <= 0.0\ngini = 0.26\nsamples = 13\nvalue = [11, 2]"] ;
136 -> 140 ;
141 [label="gini = 0.0\nsamples = 5\nvalue = [5, 0]"] ;
140 -> 141 ;
142 [label="iframe <= 0.0\ngini = 0.375\nsamples = 8\nvalue = [6, 2]"] ;
140 -> 142 ;
143 [label="gini = 0.0\nsamples = 1\nvalue = [1, 0]"] ;
142 -> 143 ;
144 [label="gini = 0.408\nsamples = 7\nvalue = [5, 2]"] ;
142 -> 144 ;
145 [label="age_of_domain <= 0.0\ngini = 0.1\nsamples = 38\nvalue = [36, 2]"] ;
135 -> 145 ;
146 [label="domain_registration_length <= 0.0\ngini = 0.188\nsamples = 19\nvalue = [17, 2]"] ;
145 -> 146 ;
147 [label="gini = 0.0\nsamples = 7\nvalue = [7, 0]"] ;
146 -> 147 ;
148 [label="having_sub_domain <= 0.5\ngini = 0.278\nsamples = 12\nvalue = [10, 2]"] ;
146 -> 148 ;
149 [label="redirect <= 0.5\ngini = 0.375\nsamples = 8\nvalue = [6, 2]"] ;
148 -> 149 ;
150 [label="submitting_to_email <= 0.0\ngini = 0.444\nsamples = 6\nvalue = [4, 2]"] ;
149 -> 150 ;
151 [label="gini = 0.0\nsamples = 1\nvalue = [1, 0]"] ;
150 -> 151 ;
152 [label="gini = 0.48\nsamples = 5\nvalue = [3, 2]"] ;
150 -> 152 ;
153 [label="gini = 0.0\nsamples = 2\nvalue = [2, 0]"] ;
149 -> 153 ;
154 [label="gini = 0.0\nsamples = 4\nvalue = [4, 0]"] ;
148 -> 154 ;
155 [label="gini = 0.0\nsamples = 19\nvalue = [19, 0]"] ;
145 -> 155 ;
156 [label="having_at_symbol <= 0.0\ngini = 0.457\nsamples = 48\nvalue = [31, 17]"] ;
134 -> 156 ;
157 [label="gini = 0.0\nsamples = 7\nvalue = [7, 0]"] ;
156 -> 157 ;
158 [label="sslfinal_state <= -0.5\ngini = 0.485\nsamples = 41\nvalue = [24, 17]"] ;
156 -> 158 ;
159 [label="submitting_to_email <= 0.0\ngini = 0.391\nsamples = 30\nvalue = [22, 8]"] ;
158 -> 159 ;
160 [label="gini = 0.0\nsamples = 1\nvalue = [0, 1]"] ;
159 -> 160 ;
161 [label="domain_registration_length <= 0.0\ngini = 0.366\nsamples = 29\nvalue = [22, 7]"] ;
159 -> 161 ;
162 [label="gini = 0.0\nsamples = 10\nvalue = [10, 0]"] ;
161 -> 162 ;
163 [label="sfh <= 0.0\ngini = 0.465\nsamples = 19\nvalue = [12, 7]"] ;
161 -> 163 ;
164 [label="dnsrecord <= 0.0\ngini = 0.444\nsamples = 18\nvalue = [12, 6]"] ;
163 -> 164 ;
165 [label="gini = 0.0\nsamples = 2\nvalue = [2, 0]"] ;
164 -> 165 ;
166 [label="having_sub_domain <= 0.5\ngini = 0.469\nsamples = 16\nvalue = [10, 6]"] ;
164 -> 166 ;
167 [label="gini = 0.5\nsamples = 10\nvalue = [5, 5]"] ;
166 -> 167 ;
168 [label="age_of_domain <= 0.0\ngini = 0.278\nsamples = 6\nvalue = [5, 1]"] ;
166 -> 168 ;
169 [label="gini = 0.0\nsamples = 2\nvalue = [2, 0]"] ;
168 -> 169 ;
170 [label="gini = 0.375\nsamples = 4\nvalue = [3, 1]"] ;
168 -> 170 ;
171 [label="gini = 0.0\nsamples = 1\nvalue = [0, 1]"] ;
163 -> 171 ;
172 [label="having_sub_domain <= 0.5\ngini = 0.298\nsamples = 11\nvalue = [2, 9]"] ;
158 -> 172 ;
173 [label="gini = 0.0\nsamples = 2\nvalue = [2, 0]"] ;
172 -> 173 ;
174 [label="gini = 0.0\nsamples = 9\nvalue = [0, 9]"] ;
172 -> 174 ;
175 [label="favicon <= 0.0\ngini = 0.494\nsamples = 9\nvalue = [4, 5]"] ;
73 -> 175 ;
176 [label="gini = 0.0\nsamples = 5\nvalue = [0, 5]"] ;
175 -> 176 ;
177 [label="gini = 0.0\nsamples = 4\nvalue = [4, 0]"] ;
175 -> 177 ;
178 [label="gini = 0.0\nsamples = 16\nvalue = [0, 16]"] ;
6 -> 178 ;
179 [label="prefix_suffix <= 0.0\ngini = 0.5\nsamples = 627\nvalue = [306, 321]"] ;
5 -> 179 ;
180 [label="domain_registration_length <= 0.0\ngini = 0.495\nsamples = 557\nvalue = [306, 251]"] ;
179 -> 180 ;
181 [label="having_sub_domain <= -0.5\ngini = 0.495\nsamples = 371\nvalue = [167, 204]"] ;
180 -> 181 ;
182 [label="links_in_tags <= 0.5\ngini = 0.413\nsamples = 103\nvalue = [73.0, 30.0]"] ;
181 -> 182 ;
183 [label="url_length <= 0.0\ngini = 0.286\nsamples = 81\nvalue = [67, 14]"] ;
182 -> 183 ;
184 [label="sfh <= -0.5\ngini = 0.157\nsamples = 70\nvalue = [64, 6]"] ;
183 -> 184 ;
185 [label="web_traffic <= 0.5\ngini = 0.111\nsamples = 68\nvalue = [64, 4]"] ;
184 -> 185 ;
186 [label="gini = 0.0\nsamples = 40\nvalue = [40, 0]"] ;
185 -> 186 ;
187 [label="request_url <= 0.0\ngini = 0.245\nsamples = 28\nvalue = [24, 4]"] ;
185 -> 187 ;
188 [label="gini = 0.0\nsamples = 7\nvalue = [7, 0]"] ;
187 -> 188 ;
189 [label="dnsrecord <= 0.0\ngini = 0.308\nsamples = 21\nvalue = [17, 4]"] ;
187 -> 189 ;
190 [label="gini = 0.0\nsamples = 4\nvalue = [4, 0]"] ;
189 -> 190 ;
191 [label="url_of_anchor <= 0.5\ngini = 0.36\nsamples = 17\nvalue = [13, 4]"] ;
189 -> 191 ;
192 [label="gini = 0.298\nsamples = 11\nvalue = [9, 2]"] ;
191 -> 192 ;
193 [label="redirect <= 0.5\ngini = 0.444\nsamples = 6\nvalue = [4, 2]"] ;
191 -> 193 ;
194 [label="gini = 0.48\nsamples = 5\nvalue = [3, 2]"] ;
193 -> 194 ;
195 [label="gini = 0.0\nsamples = 1\nvalue = [1, 0]"] ;
193 -> 195 ;
196 [label="gini = 0.0\nsamples = 2\nvalue = [0, 2]"] ;
184 -> 196 ;
197 [label="sfh <= 0.5\ngini = 0.397\nsamples = 11\nvalue = [3, 8]"] ;
183 -> 197 ;
198 [label="sslfinal_state <= -0.5\ngini = 0.198\nsamples = 9\nvalue = [1, 8]"] ;
197 -> 198 ;
199 [label="gini = 0.0\nsamples = 8\nvalue = [0, 8]"] ;
198 -> 199 ;
200 [label="gini = 0.0\nsamples = 1\nvalue = [1, 0]"] ;
198 -> 200 ;
201 [label="gini = 0.0\nsamples = 2\nvalue = [2, 0]"] ;
197 -> 201 ;
202 [label="sslfinal_state <= -0.5\ngini = 0.397\nsamples = 22\nvalue = [6, 16]"] ;
182 -> 202 ;
203 [label="url_length <= 0.0\ngini = 0.266\nsamples = 19\nvalue = [3, 16]"] ;
202 -> 203 ;
204 [label="gini = 0.0\nsamples = 11\nvalue = [0, 11]"] ;
203 -> 204 ;
205 [label="dnsrecord <= 0.0\ngini = 0.469\nsamples = 8\nvalue = [3, 5]"] ;
203 -> 205 ;
206 [label="gini = 0.0\nsamples = 1\nvalue = [1, 0]"] ;
205 -> 206 ;
207 [label="gini = 0.408\nsamples = 7\nvalue = [2, 5]"] ;
205 -> 207 ;
208 [label="gini = 0.0\nsamples = 3\nvalue = [3, 0]"] ;
202 -> 208 ;
209 [label="web_traffic <= 0.5\ngini = 0.455\nsamples = 268\nvalue = [94, 174]"] ;
181 -> 209 ;
210 [label="having_sub_domain <= 0.5\ngini = 0.498\nsamples = 102\nvalue = [54, 48]"] ;
209 -> 210 ;
211 [label="links_in_tags <= 0.5\ngini = 0.307\nsamples = 37\nvalue = [30, 7]"] ;
210 -> 211 ;
212 [label="https_token <= 0.0\ngini = 0.124\nsamples = 30\nvalue = [28, 2]"] ;
211 -> 212 ;
213 [label="popupwindow <= 0.0\ngini = 0.48\nsamples = 5\nvalue = [3, 2]"] ;
212 -> 213 ;
214 [label="gini = 0.0\nsamples = 3\nvalue = [3, 0]"] ;
213 -> 214 ;
215 [label="gini = 0.0\nsamples = 2\nvalue = [0, 2]"] ;
213 -> 215 ;
216 [label="gini = 0.0\nsamples = 25\nvalue = [25, 0]"] ;
212 -> 216 ;
217 [label="web_traffic <= -0.5\ngini = 0.408\nsamples = 7\nvalue = [2, 5]"] ;
211 -> 217 ;
218 [label="having_ip_address <= 0.0\ngini = 0.278\nsamples = 6\nvalue = [1, 5]"] ;
217 -> 218 ;
219 [label="port <= 0.0\ngini = 0.5\nsamples = 2\nvalue = [1, 1]"] ;
218 -> 219 ;
220 [label="gini = 0.0\nsamples = 1\nvalue = [0, 1]"] ;
219 -> 220 ;
221 [label="gini = 0.0\nsamples = 1\nvalue = [1, 0]"] ;
219 -> 221 ;
222 [label="gini = 0.0\nsamples = 4\nvalue = [0, 4]"] ;
218 -> 222 ;
223 [label="gini = 0.0\nsamples = 1\nvalue = [1, 0]"] ;
217 -> 223 ;
224 [label="submitting_to_email <= 0.0\ngini = 0.466\nsamples = 65\nvalue = [24, 41]"] ;
210 -> 224 ;
225 [label="favicon <= 0.0\ngini = 0.346\nsamples = 9\nvalue = [7, 2]"] ;
224 -> 225 ;
226 [label="gini = 0.0\nsamples = 2\nvalue = [0, 2]"] ;
225 -> 226 ;
227 [label="gini = 0.0\nsamples = 7\nvalue = [7, 0]"] ;
225 -> 227 ;
228 [label="favicon <= 0.0\ngini = 0.423\nsamples = 56\nvalue = [17, 39]"] ;
224 -> 228 ;
229 [label="gini = 0.0\nsamples = 4\nvalue = [4, 0]"] ;
228 -> 229 ;
230 [label="sslfinal_state <= -0.5\ngini = 0.375\nsamples = 52\nvalue = [13, 39]"] ;
228 -> 230 ;
231 [label="links_in_tags <= 0.5\ngini = 0.325\nsamples = 49\nvalue = [10, 39]"] ;
230 -> 231 ;
232 [label="url_length <= 0.0\ngini = 0.071\nsamples = 27\nvalue = [1, 26]"] ;
231 -> 232 ;
233 [label="gini = 0.0\nsamples = 23\nvalue = [0, 23]"] ;
232 -> 233 ;
234 [label="abnormal_url <= 0.0\ngini = 0.375\nsamples = 4\nvalue = [1, 3]"] ;
232 -> 234 ;
235 [label="gini = 0.0\nsamples = 1\nvalue = [1, 0]"] ;
234 -> 235 ;
236 [label="gini = 0.0\nsamples = 3\nvalue = [0, 3]"] ;
234 -> 236 ;
237 [label="https_token <= 0.0\ngini = 0.483\nsamples = 22\nvalue = [9, 13]"] ;
231 -> 237 ;
238 [label="gini = 0.0\nsamples = 4\nvalue = [4, 0]"] ;
237 -> 238 ;
239 [label="dnsrecord <= 0.0\ngini = 0.401\nsamples = 18\nvalue = [5, 13]"] ;
237 -> 239 ;
240 [label="url_length <= 0.0\ngini = 0.444\nsamples = 6\nvalue = [4, 2]"] ;
239 -> 240 ;
241 [label="web_traffic <= -0.5\ngini = 0.5\nsamples = 4\nvalue = [2, 2]"] ;
240 -> 241 ;
242 [label="gini = 0.0\nsamples = 2\nvalue = [0, 2]"] ;
241 -> 242 ;
243 [label="gini = 0.0\nsamples = 2\nvalue = [2, 0]"] ;
241 -> 243 ;
244 [label="gini = 0.0\nsamples = 2\nvalue = [2, 0]"] ;
240 -> 244 ;
245 [label="having_ip_address <= 0.0\ngini = 0.153\nsamples = 12\nvalue = [1, 11]"] ;
239 -> 245 ;
246 [label="url_length <= 0.0\ngini = 0.5\nsamples = 2\nvalue = [1, 1]"] ;
245 -> 246 ;
247 [label="gini = 0.0\nsamples = 1\nvalue = [0, 1]"] ;
246 -> 247 ;
248 [label="gini = 0.0\nsamples = 1\nvalue = [1, 0]"] ;
246 -> 248 ;
249 [label="gini = 0.0\nsamples = 10\nvalue = [0, 10]"] ;
245 -> 249 ;
250 [label="gini = 0.0\nsamples = 3\nvalue = [3, 0]"] ;
230 -> 250 ;
251 [label="url_of_anchor <= 0.5\ngini = 0.366\nsamples = 166\nvalue = [40, 126]"] ;
209 -> 251 ;
252 [label="url_length <= 0.0\ngini = 0.456\nsamples = 105\nvalue = [37, 68]"] ;
251 -> 252 ;
253 [label="shortining_service <= 0.0\ngini = 0.498\nsamples = 73\nvalue = [34, 39]"] ;
252 -> 253 ;
254 [label="gini = 0.0\nsamples = 15\nvalue = [0, 15]"] ;
253 -> 254 ;
255 [label="having_ip_address <= 0.0\ngini = 0.485\nsamples = 58\nvalue = [34, 24]"] ;
253 -> 255 ;
256 [label="request_url <= 0.0\ngini = 0.266\nsamples = 19\nvalue = [16, 3]"] ;
255 -> 256 ;
257 [label="sfh <= -0.5\ngini = 0.5\nsamples = 4\nvalue = [2, 2]"] ;
256 -> 257 ;
258 [label="gini = 0.0\nsamples = 2\nvalue = [2, 0]"] ;
257 -> 258 ;
259 [label="gini = 0.0\nsamples = 2\nvalue = [0, 2]"] ;
257 -> 259 ;
260 [label="submitting_to_email <= 0.0\ngini = 0.124\nsamples = 15\nvalue = [14, 1]"] ;
256 -> 260 ;
261 [label="gini = 0.0\nsamples = 8\nvalue = [8, 0]"] ;
260 -> 261 ;
262 [label="popupwindow <= 0.0\ngini = 0.245\nsamples = 7\nvalue = [6, 1]"] ;
260 -> 262 ;
263 [label="favicon <= 0.0\ngini = 0.375\nsamples = 4\nvalue = [3, 1]"] ;
262 -> 263 ;
264 [label="gini = 0.0\nsamples = 3\nvalue = [3, 0]"] ;
263 -> 264 ;
265 [label="gini = 0.0\nsamples = 1\nvalue = [0, 1]"] ;
263 -> 265 ;
266 [label="gini = 0.0\nsamples = 3\nvalue = [3, 0]"] ;
262 -> 266 ;
267 [label="redirect <= 0.5\ngini = 0.497\nsamples = 39\nvalue = [18, 21]"] ;
255 -> 267 ;
268 [label="having_sub_domain <= 0.5\ngini = 0.48\nsamples = 35\nvalue = [14, 21]"] ;
267 -> 268 ;
269 [label="sslfinal_state <= -0.5\ngini = 0.451\nsamples = 32\nvalue = [11, 21]"] ;
268 -> 269 ;
270 [label="https_token <= 0.0\ngini = 0.42\nsamples = 30\nvalue = [9, 21]"] ;
269 -> 270 ;
271 [label="gini = 0.0\nsamples = 1\nvalue = [1, 0]"] ;
270 -> 271 ;
272 [label="links_in_tags <= 0.5\ngini = 0.4\nsamples = 29\nvalue = [8, 21]"] ;
270 -> 272 ;
273 [label="dnsrecord <= 0.0\ngini = 0.435\nsamples = 25\nvalue = [8, 17]"] ;
272 -> 273 ;
274 [label="request_url <= 0.0\ngini = 0.5\nsamples = 4\nvalue = [2, 2]"] ;
273 -> 274 ;
275 [label="gini = 0.0\nsamples = 2\nvalue = [0, 2]"] ;
274 -> 275 ;
276 [label="gini = 0.0\nsamples = 2\nvalue = [2, 0]"] ;
274 -> 276 ;
277 [label="request_url <= 0.0\ngini = 0.408\nsamples = 21\nvalue = [6, 15]"] ;
273 -> 277 ;
278 [label="age_of_domain <= 0.0\ngini = 0.5\nsamples = 6\nvalue = [3, 3]"] ;
277 -> 278 ;
279 [label="gini = 0.0\nsamples = 1\nvalue = [0, 1]"] ;
278 -> 279 ;
280 [label="sfh <= -0.5\ngini = 0.48\nsamples = 5\nvalue = [3, 2]"] ;
278 -> 280 ;
281 [label="gini = 0.5\nsamples = 4\nvalue = [2, 2]"] ;
280 -> 281 ;
282 [label="gini = 0.0\nsamples = 1\nvalue = [1, 0]"] ;
280 -> 282 ;
283 [label="having_at_symbol <= 0.0\ngini = 0.32\nsamples = 15\nvalue = [3, 12]"] ;
277 -> 283 ;
284 [label="gini = 0.5\nsamples = 2\nvalue = [1, 1]"] ;
283 -> 284 ;
285 [label="age_of_domain <= 0.0\ngini = 0.26\nsamples = 13\nvalue = [2, 11]"] ;
283 -> 285 ;
286 [label="gini = 0.408\nsamples = 7\nvalue = [2, 5]"] ;
285 -> 286 ;
287 [label="gini = 0.0\nsamples = 6\nvalue = [0, 6]"] ;
285 -> 287 ;
288 [label="gini = 0.0\nsamples = 4\nvalue = [0, 4]"] ;
272 -> 288 ;
289 [label="gini = 0.0\nsamples = 2\nvalue = [2, 0]"] ;
269 -> 289 ;
290 [label="gini = 0.0\nsamples = 3\nvalue = [3, 0]"] ;
268 -> 290 ;
291 [label="gini = 0.0\nsamples = 4\nvalue = [4, 0]"] ;
267 -> 291 ;
292 [label="abnormal_url <= 0.0\ngini = 0.17\nsamples = 32\nvalue = [3, 29]"] ;
252 -> 292 ;
293 [label="gini = 0.0\nsamples = 1\nvalue = [1, 0]"] ;
292 -> 293 ;
294 [label="sfh <= 0.5\ngini = 0.121\nsamples = 31\nvalue = [2, 29]"] ;
292 -> 294 ;
295 [label="sfh <= -0.5\ngini = 0.231\nsamples = 15\nvalue = [2, 13]"] ;
294 -> 295 ;
296 [label="gini = 0.0\nsamples = 9\nvalue = [0, 9]"] ;
295 -> 296 ;
297 [label="links_in_tags <= 0.5\ngini = 0.444\nsamples = 6\nvalue = [2, 4]"] ;
295 -> 297 ;
298 [label="having_sub_domain <= 0.5\ngini = 0.444\nsamples = 3\nvalue = [2, 1]"] ;
297 -> 298 ;
299 [label="gini = 0.0\nsamples = 2\nvalue = [2, 0]"] ;
298 -> 299 ;
300 [label="gini = 0.0\nsamples = 1\nvalue = [0, 1]"] ;
298 -> 300 ;
301 [label="gini = 0.0\nsamples = 3\nvalue = [0, 3]"] ;
297 -> 301 ;
302 [label="gini = 0.0\nsamples = 16\nvalue = [0, 16]"] ;
294 -> 302 ;
303 [label="on_mouseover <= 0.0\ngini = 0.094\nsamples = 61\nvalue = [3, 58]"] ;
251 -> 303 ;
304 [label="gini = 0.0\nsamples = 2\nvalue = [2, 0]"] ;
303 -> 304 ;
305 [label="redirect <= 0.5\ngini = 0.033\nsamples = 59\nvalue = [1, 58]"] ;
303 -> 305 ;
306 [label="gini = 0.0\nsamples = 53\nvalue = [0, 53]"] ;
305 -> 306 ;
307 [label="shortining_service <= 0.0\ngini = 0.278\nsamples = 6\nvalue = [1, 5]"] ;
305 -> 307 ;
308 [label="gini = 0.0\nsamples = 5\nvalue = [0, 5]"] ;
307 -> 308 ;
309 [label="gini = 0.0\nsamples = 1\nvalue = [1, 0]"] ;
307 -> 309 ;
310 [label="sslfinal_state <= -0.5\ngini = 0.378\nsamples = 186\nvalue = [139, 47]"] ;
180 -> 310 ;
311 [label="redirect <= -0.5\ngini = 0.402\nsamples = 169\nvalue = [122.0, 47.0]"] ;
310 -> 311 ;
312 [label="gini = 0.0\nsamples = 2\nvalue = [0, 2]"] ;
311 -> 312 ;
313 [label="submitting_to_email <= 0.0\ngini = 0.394\nsamples = 167\nvalue = [122, 45]"] ;
311 -> 313 ;
314 [label="gini = 0.0\nsamples = 13\nvalue = [13, 0]"] ;
313 -> 314 ;
315 [label="url_length <= -0.5\ngini = 0.414\nsamples = 154\nvalue = [109, 45]"] ;
313 -> 315 ;
316 [label="sfh <= -0.5\ngini = 0.431\nsamples = 143\nvalue = [98, 45]"] ;
315 -> 316 ;
317 [label="links_in_tags <= 0.5\ngini = 0.398\nsamples = 124\nvalue = [90, 34]"] ;
316 -> 317 ;
318 [label="double_slash_redirecting <= 0.0\ngini = 0.423\nsamples = 102\nvalue = [71.0, 31.0]"] ;
317 -> 318 ;
319 [label="gini = 0.0\nsamples = 3\nvalue = [3, 0]"] ;
318 -> 319 ;
320 [label="request_url <= 0.0\ngini = 0.43\nsamples = 99\nvalue = [68, 31]"] ;
318 -> 320 ;
321 [label="age_of_domain <= 0.0\ngini = 0.458\nsamples = 62\nvalue = [40, 22]"] ;
320 -> 321 ;
322 [label="web_traffic <= 0.5\ngini = 0.484\nsamples = 39\nvalue = [23, 16]"] ;
321 -> 322 ;
323 [label="having_sub_domain <= 0.5\ngini = 0.346\nsamples = 9\nvalue = [7, 2]"] ;
322 -> 323 ;
324 [label="gini = 0.0\nsamples = 6\nvalue = [6, 0]"] ;
323 -> 324 ;
325 [label="dnsrecord <= 0.0\ngini = 0.444\nsamples = 3\nvalue = [1, 2]"] ;
323 -> 325 ;
326 [label="gini = 0.0\nsamples = 1\nvalue = [1, 0]"] ;
325 -> 326 ;
327 [label="gini = 0.0\nsamples = 2\nvalue = [0, 2]"] ;
325 -> 327 ;
328 [label="redirect <= 0.5\ngini = 0.498\nsamples = 30\nvalue = [16, 14]"] ;
322 -> 328 ;
329 [label="having_ip_address <= 0.0\ngini = 0.499\nsamples = 29\nvalue = [15.0, 14.0]"] ;
328 -> 329 ;
330 [label="having_sub_domain <= 0.5\ngini = 0.496\nsamples = 11\nvalue = [5, 6]"] ;
329 -> 330 ;
331 [label="having_sub_domain <= -0.5\ngini = 0.49\nsamples = 7\nvalue = [3, 4]"] ;
330 -> 331 ;
332 [label="gini = 0.5\nsamples = 2\nvalue = [1, 1]"] ;
331 -> 332 ;
333 [label="gini = 0.48\nsamples = 5\nvalue = [2, 3]"] ;
331 -> 333 ;
334 [label="gini = 0.5\nsamples = 4\nvalue = [2, 2]"] ;
330 -> 334 ;
335 [label="having_sub_domain <= -0.5\ngini = 0.494\nsamples = 18\nvalue = [10, 8]"] ;
329 -> 335 ;
336 [label="dnsrecord <= 0.0\ngini = 0.5\nsamples = 10\nvalue = [5, 5]"] ;
335 -> 336 ;
337 [label="gini = 0.0\nsamples = 2\nvalue = [2, 0]"] ;
336 -> 337 ;
338 [label="gini = 0.469\nsamples = 8\nvalue = [3, 5]"] ;
336 -> 338 ;
339 [label="dnsrecord <= 0.0\ngini = 0.469\nsamples = 8\nvalue = [5, 3]"] ;
335 -> 339 ;
340 [label="gini = 0.444\nsamples = 3\nvalue = [1, 2]"] ;
339 -> 340 ;
341 [label="having_sub_domain <= 0.5\ngini = 0.32\nsamples = 5\nvalue = [4, 1]"] ;
339 -> 341 ;
342 [label="gini = 0.444\nsamples = 3\nvalue = [2, 1]"] ;
341 -> 342 ;
343 [label="gini = 0.0\nsamples = 2\nvalue = [2, 0]"] ;
341 -> 343 ;
344 [label="gini = 0.0\nsamples = 1\nvalue = [1, 0]"] ;
328 -> 344 ;
345 [label="web_traffic <= -0.5\ngini = 0.386\nsamples = 23\nvalue = [17, 6]"] ;
321 -> 345 ;
346 [label="gini = 0.0\nsamples = 2\nvalue = [0, 2]"] ;
345 -> 346 ;
347 [label="having_sub_domain <= 0.0\ngini = 0.308\nsamples = 21\nvalue = [17, 4]"] ;
345 -> 347 ;
348 [label="dnsrecord <= 0.0\ngini = 0.5\nsamples = 8\nvalue = [4, 4]"] ;
347 -> 348 ;
349 [label="gini = 0.49\nsamples = 7\nvalue = [3, 4]"] ;
348 -> 349 ;
350 [label="gini = 0.0\nsamples = 1\nvalue = [1, 0]"] ;
348 -> 350 ;
351 [label="gini = 0.0\nsamples = 13\nvalue = [13, 0]"] ;
347 -> 351 ;
352 [label="age_of_domain <= 0.0\ngini = 0.368\nsamples = 37\nvalue = [28, 9]"] ;
320 -> 352 ;
353 [label="dnsrecord <= 0.0\ngini = 0.165\nsamples = 22\nvalue = [20, 2]"] ;
352 -> 353 ;
354 [label="gini = 0.444\nsamples = 6\nvalue = [4, 2]"] ;
353 -> 354 ;
355 [label="gini = 0.0\nsamples = 16\nvalue = [16, 0]"] ;
353 -> 355 ;
356 [label="having_sub_domain <= -0.5\ngini = 0.498\nsamples = 15\nvalue = [8, 7]"] ;
352 -> 356 ;
357 [label="gini = 0.0\nsamples = 4\nvalue = [4, 0]"] ;
356 -> 357 ;
358 [label="having_ip_address <= 0.0\ngini = 0.463\nsamples = 11\nvalue = [4, 7]"] ;
356 -> 358 ;
359 [label="web_traffic <= 0.0\ngini = 0.375\nsamples = 4\nvalue = [3, 1]"] ;
358 -> 359 ;
360 [label="gini = 0.0\nsamples = 1\nvalue = [0, 1]"] ;
359 -> 360 ;
361 [label="gini = 0.0\nsamples = 3\nvalue = [3, 0]"] ;
359 -> 361 ;
362 [label="having_sub_domain <= 0.5\ngini = 0.245\nsamples = 7\nvalue = [1, 6]"] ;
358 -> 362 ;
363 [label="gini = 0.0\nsamples = 4\nvalue = [0, 4]"] ;
362 -> 363 ;
364 [label="dnsrecord <= 0.0\ngini = 0.444\nsamples = 3\nvalue = [1, 2]"] ;
362 -> 364 ;
365 [label="gini = 0.0\nsamples = 2\nvalue = [0, 2]"] ;
364 -> 365 ;
366 [label="gini = 0.0\nsamples = 1\nvalue = [1, 0]"] ;
364 -> 366 ;
367 [label="age_of_domain <= 0.0\ngini = 0.236\nsamples = 22\nvalue = [19, 3]"] ;
317 -> 367 ;
368 [label="having_ip_address <= 0.0\ngini = 0.49\nsamples = 7\nvalue = [4, 3]"] ;
367 -> 368 ;
369 [label="gini = 0.0\nsamples = 2\nvalue = [2, 0]"] ;
368 -> 369 ;
370 [label="url_of_anchor <= 0.5\ngini = 0.48\nsamples = 5\nvalue = [2, 3]"] ;
368 -> 370 ;
371 [label="gini = 0.375\nsamples = 4\nvalue = [1, 3]"] ;
370 -> 371 ;
372 [label="gini = 0.0\nsamples = 1\nvalue = [1, 0]"] ;
370 -> 372 ;
373 [label="gini = 0.0\nsamples = 15\nvalue = [15, 0]"] ;
367 -> 373 ;
374 [label="having_sub_domain <= 0.5\ngini = 0.488\nsamples = 19\nvalue = [8, 11]"] ;
316 -> 374 ;
375 [label="web_traffic <= 0.5\ngini = 0.473\nsamples = 13\nvalue = [8, 5]"] ;
374 -> 375 ;
376 [label="gini = 0.0\nsamples = 6\nvalue = [6, 0]"] ;
375 -> 376 ;
377 [label="age_of_domain <= 0.0\ngini = 0.408\nsamples = 7\nvalue = [2, 5]"] ;
375 -> 377 ;
378 [label="gini = 0.0\nsamples = 4\nvalue = [0, 4]"] ;
377 -> 378 ;
379 [label="having_ip_address <= 0.0\ngini = 0.444\nsamples = 3\nvalue = [2, 1]"] ;
377 -> 379 ;
380 [label="gini = 0.0\nsamples = 1\nvalue = [0, 1]"] ;
379 -> 380 ;
381 [label="gini = 0.0\nsamples = 2\nvalue = [2, 0]"] ;
379 -> 381 ;
382 [label="gini = 0.0\nsamples = 6\nvalue = [0, 6]"] ;
374 -> 382 ;
383 [label="gini = 0.0\nsamples = 11\nvalue = [11, 0]"] ;
315 -> 383 ;
384 [label="gini = 0.0\nsamples = 17\nvalue = [17, 0]"] ;
310 -> 384 ;
385 [label="gini = 0.0\nsamples = 70\nvalue = [0, 70]"] ;
179 -> 385 ;
386 [label="url_of_anchor <= -0.5\ngini = 0.195\nsamples = 4753\nvalue = [519, 4234]"] ;
0 -> 386 [labeldistance=2.5, labelangle=-45, headlabel="False"] ;
387 [label="prefix_suffix <= 0.0\ngini = 0.235\nsamples = 199\nvalue = [172, 27]"] ;
386 -> 387 ;
388 [label="links_in_tags <= -0.5\ngini = 0.131\nsamples = 185\nvalue = [172, 13]"] ;
387 -> 388 ;
389 [label="gini = 0.0\nsamples = 122\nvalue = [122, 0]"] ;
388 -> 389 ;
390 [label="request_url <= 0.0\ngini = 0.328\nsamples = 63\nvalue = [50, 13]"] ;
388 -> 390 ;
391 [label="gini = 0.0\nsamples = 34\nvalue = [34, 0]"] ;
390 -> 391 ;
392 [label="shortining_service <= 0.0\ngini = 0.495\nsamples = 29\nvalue = [16, 13]"] ;
390 -> 392 ;
393 [label="gini = 0.0\nsamples = 10\nvalue = [10, 0]"] ;
392 -> 393 ;
394 [label="favicon <= 0.0\ngini = 0.432\nsamples = 19\nvalue = [6, 13]"] ;
392 -> 394 ;
395 [label="on_mouseover <= 0.0\ngini = 0.5\nsamples = 12\nvalue = [6, 6]"] ;
394 -> 395 ;
396 [label="links_in_tags <= 0.5\ngini = 0.375\nsamples = 8\nvalue = [2, 6]"] ;
395 -> 396 ;
397 [label="gini = 0.0\nsamples = 2\nvalue = [2, 0]"] ;
396 -> 397 ;
398 [label="gini = 0.0\nsamples = 6\nvalue = [0, 6]"] ;
396 -> 398 ;
399 [label="gini = 0.0\nsamples = 4\nvalue = [4, 0]"] ;
395 -> 399 ;
400 [label="gini = 0.0\nsamples = 7\nvalue = [0, 7]"] ;
394 -> 400 ;
401 [label="gini = 0.0\nsamples = 14\nvalue = [0, 14]"] ;
387 -> 401 ;
402 [label="web_traffic <= 0.5\ngini = 0.141\nsamples = 4554\nvalue = [347, 4207]"] ;
386 -> 402 ;
403 [label="web_traffic <= -0.5\ngini = 0.267\nsamples = 1492\nvalue = [237, 1255]"] ;
402 -> 403 ;
404 [label="double_slash_redirecting <= 0.0\ngini = 0.028\nsamples = 710\nvalue = [10, 700]"] ;
403 -> 404 ;
405 [label="https_token <= 0.0\ngini = 0.112\nsamples = 84\nvalue = [5, 79]"] ;
404 -> 405 ;
406 [label="shortining_service <= 0.0\ngini = 0.026\nsamples = 76\nvalue = [1, 75]"] ;
405 -> 406 ;
407 [label="gini = 0.0\nsamples = 73\nvalue = [0, 73]"] ;
406 -> 407 ;
408 [label="age_of_domain <= 0.0\ngini = 0.444\nsamples = 3\nvalue = [1, 2]"] ;
406 -> 408 ;
409 [label="gini = 0.0\nsamples = 1\nvalue = [1, 0]"] ;
408 -> 409 ;
410 [label="gini = 0.0\nsamples = 2\nvalue = [0, 2]"] ;
408 -> 410 ;
411 [label="request_url <= 0.0\ngini = 0.5\nsamples = 8\nvalue = [4, 4]"] ;
405 -> 411 ;
412 [label="gini = 0.0\nsamples = 4\nvalue = [4, 0]"] ;
411 -> 412 ;
413 [label="gini = 0.0\nsamples = 4\nvalue = [0, 4]"] ;
411 -> 413 ;
414 [label="having_ip_address <= 0.0\ngini = 0.016\nsamples = 626\nvalue = [5, 621]"] ;
404 -> 414 ;
415 [label="links_in_tags <= -0.5\ngini = 0.048\nsamples = 202\nvalue = [5, 197]"] ;
414 -> 415 ;
416 [label="having_sub_domain <= 0.5\ngini = 0.126\nsamples = 59\nvalue = [4, 55]"] ;
415 -> 416 ;
417 [label="having_sub_domain <= -0.5\ngini = 0.32\nsamples = 15\nvalue = [3, 12]"] ;
416 -> 417 ;
418 [label="gini = 0.0\nsamples = 6\nvalue = [0, 6]"] ;
417 -> 418 ;
419 [label="url_length <= 0.0\ngini = 0.444\nsamples = 9\nvalue = [3, 6]"] ;
417 -> 419 ;
420 [label="request_url <= 0.0\ngini = 0.375\nsamples = 8\nvalue = [2, 6]"] ;
419 -> 420 ;
421 [label="gini = 0.0\nsamples = 1\nvalue = [1, 0]"] ;
420 -> 421 ;
422 [label="domain_registration_length <= 0.0\ngini = 0.245\nsamples = 7\nvalue = [1, 6]"] ;
420 -> 422 ;
423 [label="gini = 0.375\nsamples = 4\nvalue = [1, 3]"] ;
422 -> 423 ;
424 [label="gini = 0.0\nsamples = 3\nvalue = [0, 3]"] ;
422 -> 424 ;
425 [label="gini = 0.0\nsamples = 1\nvalue = [1, 0]"] ;
419 -> 425 ;
426 [label="request_url <= 0.0\ngini = 0.044\nsamples = 44\nvalue = [1, 43]"] ;
416 -> 426 ;
427 [label="sfh <= -0.5\ngini = 0.153\nsamples = 12\nvalue = [1, 11]"] ;
426 -> 427 ;
428 [label="url_of_anchor <= 0.5\ngini = 0.245\nsamples = 7\nvalue = [1, 6]"] ;
427 -> 428 ;
429 [label="age_of_domain <= 0.0\ngini = 0.5\nsamples = 2\nvalue = [1, 1]"] ;
428 -> 429 ;
430 [label="gini = 0.0\nsamples = 1\nvalue = [0, 1]"] ;
429 -> 430 ;
431 [label="gini = 0.0\nsamples = 1\nvalue = [1, 0]"] ;
429 -> 431 ;
432 [label="gini = 0.0\nsamples = 5\nvalue = [0, 5]"] ;
428 -> 432 ;
433 [label="gini = 0.0\nsamples = 5\nvalue = [0, 5]"] ;
427 -> 433 ;
434 [label="gini = 0.0\nsamples = 32\nvalue = [0, 32]"] ;
426 -> 434 ;
435 [label="domain_registration_length <= 0.0\ngini = 0.014\nsamples = 143\nvalue = [1, 142]"] ;
415 -> 435 ;
436 [label="gini = 0.0\nsamples = 103\nvalue = [0, 103]"] ;
435 -> 436 ;
437 [label="links_in_tags <= 0.5\ngini = 0.049\nsamples = 40\nvalue = [1, 39]"] ;
435 -> 437 ;
438 [label="age_of_domain <= 0.0\ngini = 0.105\nsamples = 18\nvalue = [1, 17]"] ;
437 -> 438 ;
439 [label="gini = 0.0\nsamples = 9\nvalue = [0, 9]"] ;
438 -> 439 ;
440 [label="having_sub_domain <= -0.5\ngini = 0.198\nsamples = 9\nvalue = [1, 8]"] ;
438 -> 440 ;
441 [label="gini = 0.0\nsamples = 4\nvalue = [0, 4]"] ;
440 -> 441 ;
442 [label="submitting_to_email <= 0.0\ngini = 0.32\nsamples = 5\nvalue = [1, 4]"] ;
440 -> 442 ;
443 [label="gini = 0.0\nsamples = 2\nvalue = [0, 2]"] ;
442 -> 443 ;
444 [label="request_url <= 0.0\ngini = 0.444\nsamples = 3\nvalue = [1, 2]"] ;
442 -> 444 ;
445 [label="having_sub_domain <= 0.5\ngini = 0.5\nsamples = 2\nvalue = [1, 1]"] ;
444 -> 445 ;
446 [label="gini = 0.0\nsamples = 1\nvalue = [1, 0]"] ;
445 -> 446 ;
447 [label="gini = 0.0\nsamples = 1\nvalue = [0, 1]"] ;
445 -> 447 ;
448 [label="gini = 0.0\nsamples = 1\nvalue = [0, 1]"] ;
444 -> 448 ;
449 [label="gini = 0.0\nsamples = 22\nvalue = [0, 22]"] ;
437 -> 449 ;
450 [label="gini = 0.0\nsamples = 424\nvalue = [0, 424]"] ;
414 -> 450 ;
451 [label="url_of_anchor <= 0.5\ngini = 0.412\nsamples = 782\nvalue = [227, 555]"] ;
403 -> 451 ;
452 [label="having_sub_domain <= 0.5\ngini = 0.465\nsamples = 618\nvalue = [227, 391]"] ;
451 -> 452 ;
453 [label="prefix_suffix <= 0.0\ngini = 0.494\nsamples = 280\nvalue = [155, 125]"] ;
452 -> 453 ;
454 [label="age_of_domain <= 0.0\ngini = 0.482\nsamples = 261\nvalue = [155, 106]"] ;
453 -> 454 ;
455 [label="dnsrecord <= 0.0\ngini = 0.442\nsamples = 179\nvalue = [120.0, 59.0]"] ;
454 -> 455 ;
456 [label="having_sub_domain <= -0.5\ngini = 0.194\nsamples = 46\nvalue = [41, 5]"] ;
455 -> 456 ;
457 [label="having_at_symbol <= 0.0\ngini = 0.059\nsamples = 33\nvalue = [32, 1]"] ;
456 -> 457 ;
458 [label="sfh <= 0.0\ngini = 0.5\nsamples = 2\nvalue = [1, 1]"] ;
457 -> 458 ;
459 [label="gini = 0.0\nsamples = 1\nvalue = [1, 0]"] ;
458 -> 459 ;
460 [label="gini = 0.0\nsamples = 1\nvalue = [0, 1]"] ;
458 -> 460 ;
461 [label="gini = 0.0\nsamples = 31\nvalue = [31, 0]"] ;
457 -> 461 ;
462 [label="domain_registration_length <= 0.0\ngini = 0.426\nsamples = 13\nvalue = [9, 4]"] ;
456 -> 462 ;
463 [label="submitting_to_email <= 0.0\ngini = 0.219\nsamples = 8\nvalue = [7, 1]"] ;
462 -> 463 ;
464 [label="gini = 0.0\nsamples = 1\nvalue = [0, 1]"] ;
463 -> 464 ;
465 [label="gini = 0.0\nsamples = 7\nvalue = [7, 0]"] ;
463 -> 465 ;
466 [label="links_in_tags <= -0.5\ngini = 0.48\nsamples = 5\nvalue = [2, 3]"] ;
462 -> 466 ;
467 [label="gini = 0.0\nsamples = 2\nvalue = [2, 0]"] ;
466 -> 467 ;
468 [label="gini = 0.0\nsamples = 3\nvalue = [0, 3]"] ;
466 -> 468 ;
469 [label="shortining_service <= 0.0\ngini = 0.482\nsamples = 133\nvalue = [79, 54]"] ;
455 -> 469 ;
470 [label="gini = 0.0\nsamples = 8\nvalue = [0, 8]"] ;
469 -> 470 ;
471 [label="sfh <= -0.5\ngini = 0.465\nsamples = 125\nvalue = [79, 46]"] ;
469 -> 471 ;
472 [label="links_in_tags <= -0.5\ngini = 0.446\nsamples = 119\nvalue = [79, 40]"] ;
471 -> 472 ;
473 [label="domain_registration_length <= 0.0\ngini = 0.352\nsamples = 57\nvalue = [44, 13]"] ;
472 -> 473 ;
474 [label="on_mouseover <= 0.0\ngini = 0.444\nsamples = 36\nvalue = [24, 12]"] ;
473 -> 474 ;
475 [label="iframe <= 0.0\ngini = 0.444\nsamples = 3\nvalue = [1, 2]"] ;
474 -> 475 ;
476 [label="gini = 0.0\nsamples = 1\nvalue = [1, 0]"] ;
475 -> 476 ;
477 [label="gini = 0.0\nsamples = 2\nvalue = [0, 2]"] ;
475 -> 477 ;
478 [label="having_sub_domain <= -0.5\ngini = 0.422\nsamples = 33\nvalue = [23, 10]"] ;
474 -> 478 ;
479 [label="request_url <= 0.0\ngini = 0.36\nsamples = 17\nvalue = [13, 4]"] ;
478 -> 479 ;
480 [label="gini = 0.0\nsamples = 5\nvalue = [5, 0]"] ;
479 -> 480 ;
481 [label="redirect <= 0.5\ngini = 0.444\nsamples = 12\nvalue = [8, 4]"] ;
479 -> 481 ;
482 [label="gini = 0.463\nsamples = 11\nvalue = [7, 4]"] ;
481 -> 482 ;
483 [label="gini = 0.0\nsamples = 1\nvalue = [1, 0]"] ;
481 -> 483 ;
484 [label="request_url <= 0.0\ngini = 0.469\nsamples = 16\nvalue = [10, 6]"] ;
478 -> 484 ;
485 [label="having_ip_address <= 0.0\ngini = 0.444\nsamples = 6\nvalue = [2, 4]"] ;
484 -> 485 ;
486 [label="gini = 0.0\nsamples = 2\nvalue = [2, 0]"] ;
485 -> 486 ;
487 [label="gini = 0.0\nsamples = 4\nvalue = [0, 4]"] ;
485 -> 487 ;
488 [label="having_ip_address <= 0.0\ngini = 0.32\nsamples = 10\nvalue = [8, 2]"] ;
484 -> 488 ;
489 [label="redirect <= 0.5\ngini = 0.5\nsamples = 4\nvalue = [2, 2]"] ;
488 -> 489 ;
490 [label="gini = 0.0\nsamples = 1\nvalue = [1, 0]"] ;
489 -> 490 ;
491 [label="gini = 0.444\nsamples = 3\nvalue = [1, 2]"] ;
489 -> 491 ;
492 [label="gini = 0.0\nsamples = 6\nvalue = [6, 0]"] ;
488 -> 492 ;
493 [label="rightclick <= 0.0\ngini = 0.091\nsamples = 21\nvalue = [20, 1]"] ;
473 -> 493 ;
494 [label="gini = 0.0\nsamples = 1\nvalue = [0, 1]"] ;
493 -> 494 ;
495 [label="gini = 0.0\nsamples = 20\nvalue = [20, 0]"] ;
493 -> 495 ;
496 [label="submitting_to_email <= 0.0\ngini = 0.492\nsamples = 62\nvalue = [35, 27]"] ;
472 -> 496 ;
497 [label="gini = 0.0\nsamples = 6\nvalue = [0, 6]"] ;
496 -> 497 ;
498 [label="having_sub_domain <= -0.5\ngini = 0.469\nsamples = 56\nvalue = [35, 21]"] ;
496 -> 498 ;
499 [label="favicon <= 0.0\ngini = 0.486\nsamples = 24\nvalue = [10, 14]"] ;
498 -> 499 ;
500 [label="gini = 0.0\nsamples = 2\nvalue = [2, 0]"] ;
499 -> 500 ;
501 [label="redirect <= 0.5\ngini = 0.463\nsamples = 22\nvalue = [8, 14]"] ;
499 -> 501 ;
502 [label="url_length <= 0.0\ngini = 0.48\nsamples = 20\nvalue = [8, 12]"] ;
501 -> 502 ;
503 [label="request_url <= 0.0\ngini = 0.488\nsamples = 19\nvalue = [8, 11]"] ;
502 -> 503 ;
504 [label="gini = 0.5\nsamples = 6\nvalue = [3, 3]"] ;
503 -> 504 ;
505 [label="having_ip_address <= 0.0\ngini = 0.473\nsamples = 13\nvalue = [5, 8]"] ;
503 -> 505 ;
506 [label="gini = 0.5\nsamples = 4\nvalue = [2, 2]"] ;
505 -> 506 ;
507 [label="links_in_tags <= 0.5\ngini = 0.444\nsamples = 9\nvalue = [3, 6]"] ;
505 -> 507 ;
508 [label="gini = 0.0\nsamples = 2\nvalue = [0, 2]"] ;
507 -> 508 ;
509 [label="gini = 0.49\nsamples = 7\nvalue = [3, 4]"] ;
507 -> 509 ;
510 [label="gini = 0.0\nsamples = 1\nvalue = [0, 1]"] ;
502 -> 510 ;
511 [label="gini = 0.0\nsamples = 2\nvalue = [0, 2]"] ;
501 -> 511 ;
512 [label="links_in_tags <= 0.5\ngini = 0.342\nsamples = 32\nvalue = [25, 7]"] ;
498 -> 512 ;
513 [label="having_ip_address <= 0.0\ngini = 0.434\nsamples = 22\nvalue = [15.0, 7.0]"] ;
512 -> 513 ;
514 [label="domain_registration_length <= 0.0\ngini = 0.355\nsamples = 13\nvalue = [10, 3]"] ;
513 -> 514 ;
515 [label="redirect <= 0.5\ngini = 0.198\nsamples = 9\nvalue = [8, 1]"] ;
514 -> 515 ;
516 [label="gini = 0.0\nsamples = 8\nvalue = [8, 0]"] ;
515 -> 516 ;
517 [label="gini = 0.0\nsamples = 1\nvalue = [0, 1]"] ;
515 -> 517 ;
518 [label="redirect <= 0.5\ngini = 0.5\nsamples = 4\nvalue = [2, 2]"] ;
514 -> 518 ;
519 [label="gini = 0.444\nsamples = 3\nvalue = [1, 2]"] ;
518 -> 519 ;
520 [label="gini = 0.0\nsamples = 1\nvalue = [1, 0]"] ;
518 -> 520 ;
521 [label="request_url <= 0.0\ngini = 0.494\nsamples = 9\nvalue = [5, 4]"] ;
513 -> 521 ;
522 [label="gini = 0.5\nsamples = 2\nvalue = [1, 1]"] ;
521 -> 522 ;
523 [label="gini = 0.49\nsamples = 7\nvalue = [4, 3]"] ;
521 -> 523 ;
524 [label="gini = 0.0\nsamples = 10\nvalue = [10, 0]"] ;
512 -> 524 ;
525 [label="gini = 0.0\nsamples = 6\nvalue = [0, 6]"] ;
471 -> 525 ;
526 [label="port <= 0.0\ngini = 0.489\nsamples = 82\nvalue = [35.0, 47.0]"] ;
454 -> 526 ;
527 [label="gini = 0.0\nsamples = 5\nvalue = [5, 0]"] ;
526 -> 527 ;
528 [label="having_sub_domain <= -0.5\ngini = 0.476\nsamples = 77\nvalue = [30, 47]"] ;
526 -> 528 ;
529 [label="links_in_tags <= -0.5\ngini = 0.398\nsamples = 51\nvalue = [14.0, 37.0]"] ;
528 -> 529 ;
530 [label="dnsrecord <= 0.0\ngini = 0.1\nsamples = 19\nvalue = [1, 18]"] ;
529 -> 530 ;
531 [label="gini = 0.0\nsamples = 9\nvalue = [0, 9]"] ;
530 -> 531 ;
532 [label="request_url <= 0.0\ngini = 0.18\nsamples = 10\nvalue = [1, 9]"] ;
530 -> 532 ;
533 [label="gini = 0.0\nsamples = 2\nvalue = [0, 2]"] ;
532 -> 533 ;
534 [label="gini = 0.219\nsamples = 8\nvalue = [1, 7]"] ;
532 -> 534 ;
535 [label="popupwindow <= 0.0\ngini = 0.482\nsamples = 32\nvalue = [13, 19]"] ;
529 -> 535 ;
536 [label="gini = 0.0\nsamples = 10\nvalue = [0, 10]"] ;
535 -> 536 ;
537 [label="dnsrecord <= 0.0\ngini = 0.483\nsamples = 22\nvalue = [13, 9]"] ;
535 -> 537 ;
538 [label="links_in_tags <= 0.5\ngini = 0.391\nsamples = 15\nvalue = [11, 4]"] ;
537 -> 538 ;
539 [label="url_length <= 0.0\ngini = 0.463\nsamples = 11\nvalue = [7, 4]"] ;
538 -> 539 ;
540 [label="domain_registration_length <= 0.0\ngini = 0.346\nsamples = 9\nvalue = [7, 2]"] ;
539 -> 540 ;
541 [label="gini = 0.444\nsamples = 6\nvalue = [4, 2]"] ;
540 -> 541 ;
542 [label="gini = 0.0\nsamples = 3\nvalue = [3, 0]"] ;
540 -> 542 ;
543 [label="gini = 0.0\nsamples = 2\nvalue = [0, 2]"] ;
539 -> 543 ;
544 [label="gini = 0.0\nsamples = 4\nvalue = [4, 0]"] ;
538 -> 544 ;
545 [label="domain_registration_length <= 0.0\ngini = 0.408\nsamples = 7\nvalue = [2, 5]"] ;
537 -> 545 ;
546 [label="gini = 0.48\nsamples = 5\nvalue = [2, 3]"] ;
545 -> 546 ;
547 [label="gini = 0.0\nsamples = 2\nvalue = [0, 2]"] ;
545 -> 547 ;
548 [label="links_in_tags <= -0.5\ngini = 0.473\nsamples = 26\nvalue = [16, 10]"] ;
528 -> 548 ;
549 [label="request_url <= 0.0\ngini = 0.26\nsamples = 13\nvalue = [11, 2]"] ;
548 -> 549 ;
550 [label="domain_registration_length <= 0.0\ngini = 0.5\nsamples = 4\nvalue = [2, 2]"] ;
549 -> 550 ;
551 [label="gini = 0.0\nsamples = 2\nvalue = [0, 2]"] ;
550 -> 551 ;
552 [label="gini = 0.0\nsamples = 2\nvalue = [2, 0]"] ;
550 -> 552 ;
553 [label="gini = 0.0\nsamples = 9\nvalue = [9, 0]"] ;
549 -> 553 ;
554 [label="links_in_tags <= 0.5\ngini = 0.473\nsamples = 13\nvalue = [5, 8]"] ;
548 -> 554 ;
555 [label="gini = 0.0\nsamples = 8\nvalue = [0, 8]"] ;
554 -> 555 ;
556 [label="gini = 0.0\nsamples = 5\nvalue = [5, 0]"] ;
554 -> 556 ;
557 [label="gini = 0.0\nsamples = 19\nvalue = [0, 19]"] ;
453 -> 557 ;
558 [label="dnsrecord <= 0.0\ngini = 0.335\nsamples = 338\nvalue = [72, 266]"] ;
452 -> 558 ;
559 [label="favicon <= 0.0\ngini = 0.457\nsamples = 99\nvalue = [35, 64]"] ;
558 -> 559 ;
560 [label="submitting_to_email <= 0.0\ngini = 0.198\nsamples = 18\nvalue = [2, 16]"] ;
559 -> 560 ;
561 [label="on_mouseover <= 0.0\ngini = 0.5\nsamples = 4\nvalue = [2, 2]"] ;
560 -> 561 ;
562 [label="gini = 0.0\nsamples = 2\nvalue = [0, 2]"] ;
561 -> 562 ;
563 [label="gini = 0.0\nsamples = 2\nvalue = [2, 0]"] ;
561 -> 563 ;
564 [label="gini = 0.0\nsamples = 14\nvalue = [0, 14]"] ;
560 -> 564 ;
565 [label="request_url <= 0.0\ngini = 0.483\nsamples = 81\nvalue = [33, 48]"] ;
559 -> 565 ;
566 [label="age_of_domain <= 0.0\ngini = 0.375\nsamples = 8\nvalue = [6, 2]"] ;
565 -> 566 ;
567 [label="gini = 0.0\nsamples = 6\nvalue = [6, 0]"] ;
566 -> 567 ;
568 [label="gini = 0.0\nsamples = 2\nvalue = [0, 2]"] ;
566 -> 568 ;
569 [label="age_of_domain <= 0.0\ngini = 0.466\nsamples = 73\nvalue = [27, 46]"] ;
565 -> 569 ;
570 [label="gini = 0.0\nsamples = 13\nvalue = [0, 13]"] ;
569 -> 570 ;
571 [label="popupwindow <= 0.0\ngini = 0.495\nsamples = 60\nvalue = [27, 33]"] ;
569 -> 571 ;
572 [label="gini = 0.0\nsamples = 4\nvalue = [4, 0]"] ;
571 -> 572 ;
573 [label="having_at_symbol <= 0.0\ngini = 0.484\nsamples = 56\nvalue = [23, 33]"] ;
571 -> 573 ;
574 [label="redirect <= 0.5\ngini = 0.245\nsamples = 7\nvalue = [1, 6]"] ;
573 -> 574 ;
575 [label="gini = 0.5\nsamples = 2\nvalue = [1, 1]"] ;
574 -> 575 ;
576 [label="gini = 0.0\nsamples = 5\nvalue = [0, 5]"] ;
574 -> 576 ;
577 [label="domain_registration_length <= 0.0\ngini = 0.495\nsamples = 49\nvalue = [22.0, 27.0]"] ;
573 -> 577 ;
578 [label="links_in_tags <= 0.5\ngini = 0.5\nsamples = 43\nvalue = [21, 22]"] ;
577 -> 578 ;
579 [label="prefix_suffix <= 0.0\ngini = 0.496\nsamples = 35\nvalue = [19, 16]"] ;
578 -> 579 ;
580 [label="links_in_tags <= -0.5\ngini = 0.489\nsamples = 33\nvalue = [19, 14]"] ;
579 -> 580 ;
581 [label="url_length <= 0.0\ngini = 0.5\nsamples = 22\nvalue = [11, 11]"] ;
580 -> 581 ;
582 [label="having_ip_address <= 0.0\ngini = 0.397\nsamples = 11\nvalue = [8, 3]"] ;
581 -> 582 ;
583 [label="gini = 0.0\nsamples = 1\nvalue = [0, 1]"] ;
582 -> 583 ;
584 [label="shortining_service <= 0.0\ngini = 0.32\nsamples = 10\nvalue = [8, 2]"] ;
582 -> 584 ;
585 [label="gini = 0.0\nsamples = 4\nvalue = [4, 0]"] ;
584 -> 585 ;
586 [label="gini = 0.444\nsamples = 6\nvalue = [4, 2]"] ;
584 -> 586 ;
587 [label="redirect <= 0.5\ngini = 0.397\nsamples = 11\nvalue = [3, 8]"] ;
581 -> 587 ;
588 [label="gini = 0.0\nsamples = 5\nvalue = [0, 5]"] ;
587 -> 588 ;
589 [label="gini = 0.5\nsamples = 6\nvalue = [3, 3]"] ;
587 -> 589 ;
590 [label="url_length <= 0.0\ngini = 0.397\nsamples = 11\nvalue = [8, 3]"] ;
580 -> 590 ;
591 [label="having_ip_address <= 0.0\ngini = 0.49\nsamples = 7\nvalue = [4, 3]"] ;
590 -> 591 ;
592 [label="gini = 0.0\nsamples = 1\nvalue = [0, 1]"] ;
591 -> 592 ;
593 [label="gini = 0.444\nsamples = 6\nvalue = [4, 2]"] ;
591 -> 593 ;
594 [label="gini = 0.0\nsamples = 4\nvalue = [4, 0]"] ;
590 -> 594 ;
595 [label="gini = 0.0\nsamples = 2\nvalue = [0, 2]"] ;
579 -> 595 ;
596 [label="double_slash_redirecting <= 0.0\ngini = 0.375\nsamples = 8\nvalue = [2, 6]"] ;
578 -> 596 ;
597 [label="gini = 0.0\nsamples = 2\nvalue = [0, 2]"] ;
596 -> 597 ;
598 [label="gini = 0.444\nsamples = 6\nvalue = [2, 4]"] ;
596 -> 598 ;
599 [label="links_in_tags <= -0.5\ngini = 0.278\nsamples = 6\nvalue = [1, 5]"] ;
577 -> 599 ;
600 [label="gini = 0.0\nsamples = 3\nvalue = [0, 3]"] ;
599 -> 600 ;
601 [label="gini = 0.444\nsamples = 3\nvalue = [1, 2]"] ;
599 -> 601 ;
602 [label="sfh <= -0.5\ngini = 0.262\nsamples = 239\nvalue = [37, 202]"] ;
558 -> 602 ;
603 [label="links_in_tags <= -0.5\ngini = 0.332\nsamples = 176\nvalue = [37, 139]"] ;
602 -> 603 ;
604 [label="submitting_to_email <= 0.0\ngini = 0.444\nsamples = 66\nvalue = [22, 44]"] ;
603 -> 604 ;
605 [label="domain_registration_length <= 0.0\ngini = 0.133\nsamples = 14\nvalue = [1, 13]"] ;
604 -> 605 ;
606 [label="gini = 0.0\nsamples = 13\nvalue = [0, 13]"] ;
605 -> 606 ;
607 [label="gini = 0.0\nsamples = 1\nvalue = [1, 0]"] ;
605 -> 607 ;
608 [label="url_length <= 0.0\ngini = 0.482\nsamples = 52\nvalue = [21, 31]"] ;
604 -> 608 ;
609 [label="domain_registration_length <= 0.0\ngini = 0.494\nsamples = 45\nvalue = [20, 25]"] ;
608 -> 609 ;
610 [label="age_of_domain <= 0.0\ngini = 0.5\nsamples = 34\nvalue = [17, 17]"] ;
609 -> 610 ;
611 [label="having_ip_address <= 0.0\ngini = 0.48\nsamples = 20\nvalue = [12, 8]"] ;
610 -> 611 ;
612 [label="redirect <= 0.5\ngini = 0.444\nsamples = 3\nvalue = [1, 2]"] ;
611 -> 612 ;
613 [label="gini = 0.0\nsamples = 2\nvalue = [0, 2]"] ;
612 -> 613 ;
614 [label="gini = 0.0\nsamples = 1\nvalue = [1, 0]"] ;
612 -> 614 ;
615 [label="redirect <= 0.5\ngini = 0.457\nsamples = 17\nvalue = [11, 6]"] ;
611 -> 615 ;
616 [label="gini = 0.444\nsamples = 15\nvalue = [10, 5]"] ;
615 -> 616 ;
617 [label="gini = 0.5\nsamples = 2\nvalue = [1, 1]"] ;
615 -> 617 ;
618 [label="request_url <= 0.0\ngini = 0.459\nsamples = 14\nvalue = [5, 9]"] ;
610 -> 618 ;
619 [label="gini = 0.0\nsamples = 1\nvalue = [0, 1]"] ;
618 -> 619 ;
620 [label="having_ip_address <= 0.0\ngini = 0.473\nsamples = 13\nvalue = [5, 8]"] ;
618 -> 620 ;
621 [label="gini = 0.0\nsamples = 1\nvalue = [1, 0]"] ;
620 -> 621 ;
622 [label="gini = 0.444\nsamples = 12\nvalue = [4, 8]"] ;
620 -> 622 ;
623 [label="on_mouseover <= 0.0\ngini = 0.397\nsamples = 11\nvalue = [3, 8]"] ;
609 -> 623 ;
624 [label="gini = 0.0\nsamples = 1\nvalue = [1, 0]"] ;
623 -> 624 ;
625 [label="request_url <= 0.0\ngini = 0.32\nsamples = 10\nvalue = [2, 8]"] ;
623 -> 625 ;
626 [label="having_ip_address <= 0.0\ngini = 0.408\nsamples = 7\nvalue = [2, 5]"] ;
625 -> 626 ;
627 [label="gini = 0.0\nsamples = 1\nvalue = [1, 0]"] ;
626 -> 627 ;
628 [label="age_of_domain <= 0.0\ngini = 0.278\nsamples = 6\nvalue = [1, 5]"] ;
626 -> 628 ;
629 [label="gini = 0.444\nsamples = 3\nvalue = [1, 2]"] ;
628 -> 629 ;
630 [label="gini = 0.0\nsamples = 3\nvalue = [0, 3]"] ;
628 -> 630 ;
631 [label="gini = 0.0\nsamples = 3\nvalue = [0, 3]"] ;
625 -> 631 ;
632 [label="popupwindow <= 0.0\ngini = 0.245\nsamples = 7\nvalue = [1, 6]"] ;
608 -> 632 ;
633 [label="gini = 0.0\nsamples = 1\nvalue = [1, 0]"] ;
632 -> 633 ;
634 [label="gini = 0.0\nsamples = 6\nvalue = [0, 6]"] ;
632 -> 634 ;
635 [label="links_in_tags <= 0.5\ngini = 0.236\nsamples = 110\nvalue = [15.0, 95.0]"] ;
603 -> 635 ;
636 [label="having_ip_address <= 0.0\ngini = 0.087\nsamples = 66\nvalue = [3, 63]"] ;
635 -> 636 ;
637 [label="url_length <= 0.0\ngini = 0.208\nsamples = 17\nvalue = [2, 15]"] ;
636 -> 637 ;
638 [label="age_of_domain <= 0.0\ngini = 0.408\nsamples = 7\nvalue = [2, 5]"] ;
637 -> 638 ;
639 [label="domain_registration_length <= 0.0\ngini = 0.48\nsamples = 5\nvalue = [2, 3]"] ;
638 -> 639 ;
640 [label="gini = 0.375\nsamples = 4\nvalue = [1, 3]"] ;
639 -> 640 ;
641 [label="gini = 0.0\nsamples = 1\nvalue = [1, 0]"] ;
639 -> 641 ;
642 [label="gini = 0.0\nsamples = 2\nvalue = [0, 2]"] ;
638 -> 642 ;
643 [label="gini = 0.0\nsamples = 10\nvalue = [0, 10]"] ;
637 -> 643 ;
644 [label="age_of_domain <= 0.0\ngini = 0.04\nsamples = 49\nvalue = [1.0, 48.0]"] ;
636 -> 644 ;
645 [label="gini = 0.0\nsamples = 25\nvalue = [0, 25]"] ;
644 -> 645 ;
646 [label="domain_registration_length <= 0.0\ngini = 0.08\nsamples = 24\nvalue = [1, 23]"] ;
644 -> 646 ;
647 [label="prefix_suffix <= 0.0\ngini = 0.1\nsamples = 19\nvalue = [1, 18]"] ;
646 -> 647 ;
648 [label="favicon <= 0.0\ngini = 0.117\nsamples = 16\nvalue = [1, 15]"] ;
647 -> 648 ;
649 [label="gini = 0.0\nsamples = 2\nvalue = [0, 2]"] ;
648 -> 649 ;
650 [label="gini = 0.133\nsamples = 14\nvalue = [1, 13]"] ;
648 -> 650 ;
651 [label="gini = 0.0\nsamples = 3\nvalue = [0, 3]"] ;
647 -> 651 ;
652 [label="gini = 0.0\nsamples = 5\nvalue = [0, 5]"] ;
646 -> 652 ;
653 [label="age_of_domain <= 0.0\ngini = 0.397\nsamples = 44\nvalue = [12, 32]"] ;
635 -> 653 ;
654 [label="having_ip_address <= 0.0\ngini = 0.105\nsamples = 18\nvalue = [1, 17]"] ;
653 -> 654 ;
655 [label="popupwindow <= 0.0\ngini = 0.219\nsamples = 8\nvalue = [1, 7]"] ;
654 -> 655 ;
656 [label="gini = 0.0\nsamples = 1\nvalue = [0, 1]"] ;
655 -> 656 ;
657 [label="submitting_to_email <= 0.0\ngini = 0.245\nsamples = 7\nvalue = [1, 6]"] ;
655 -> 657 ;
658 [label="gini = 0.0\nsamples = 1\nvalue = [0, 1]"] ;
657 -> 658 ;
659 [label="gini = 0.278\nsamples = 6\nvalue = [1, 5]"] ;
657 -> 659 ;
660 [label="gini = 0.0\nsamples = 10\nvalue = [0, 10]"] ;
654 -> 660 ;
661 [label="popupwindow <= 0.0\ngini = 0.488\nsamples = 26\nvalue = [11.0, 15.0]"] ;
653 -> 661 ;
662 [label="gini = 0.0\nsamples = 6\nvalue = [0, 6]"] ;
661 -> 662 ;
663 [label="https_token <= 0.0\ngini = 0.495\nsamples = 20\nvalue = [11, 9]"] ;
661 -> 663 ;
664 [label="gini = 0.0\nsamples = 4\nvalue = [0, 4]"] ;
663 -> 664 ;
665 [label="request_url <= 0.0\ngini = 0.43\nsamples = 16\nvalue = [11, 5]"] ;
663 -> 665 ;
666 [label="gini = 0.0\nsamples = 1\nvalue = [0, 1]"] ;
665 -> 666 ;
667 [label="submitting_to_email <= 0.0\ngini = 0.391\nsamples = 15\nvalue = [11, 4]"] ;
665 -> 667 ;
668 [label="gini = 0.0\nsamples = 1\nvalue = [0, 1]"] ;
667 -> 668 ;
669 [label="having_ip_address <= 0.0\ngini = 0.337\nsamples = 14\nvalue = [11, 3]"] ;
667 -> 669 ;
670 [label="redirect <= 0.5\ngini = 0.5\nsamples = 2\nvalue = [1, 1]"] ;
669 -> 670 ;
671 [label="gini = 0.0\nsamples = 1\nvalue = [0, 1]"] ;
670 -> 671 ;
672 [label="gini = 0.0\nsamples = 1\nvalue = [1, 0]"] ;
670 -> 672 ;
673 [label="url_length <= 0.0\ngini = 0.278\nsamples = 12\nvalue = [10, 2]"] ;
669 -> 673 ;
674 [label="gini = 0.165\nsamples = 11\nvalue = [10, 1]"] ;
673 -> 674 ;
675 [label="gini = 0.0\nsamples = 1\nvalue = [0, 1]"] ;
673 -> 675 ;
676 [label="gini = 0.0\nsamples = 63\nvalue = [0, 63]"] ;
602 -> 676 ;
677 [label="gini = 0.0\nsamples = 164\nvalue = [0, 164]"] ;
451 -> 677 ;
678 [label="links_in_tags <= -0.5\ngini = 0.069\nsamples = 3062\nvalue = [110, 2952]"] ;
402 -> 678 ;
679 [label="having_sub_domain <= 0.5\ngini = 0.174\nsamples = 821\nvalue = [79, 742]"] ;
678 -> 679 ;
680 [label="sfh <= -0.5\ngini = 0.274\nsamples = 440\nvalue = [72, 368]"] ;
679 -> 680 ;
681 [label="dnsrecord <= 0.0\ngini = 0.353\nsamples = 314\nvalue = [72.0, 242.0]"] ;
680 -> 681 ;
682 [label="age_of_domain <= 0.0\ngini = 0.21\nsamples = 159\nvalue = [19, 140]"] ;
681 -> 682 ;
683 [label="having_sub_domain <= -0.5\ngini = 0.335\nsamples = 80\nvalue = [17, 63]"] ;
682 -> 683 ;
684 [label="request_url <= 0.0\ngini = 0.497\nsamples = 26\nvalue = [14, 12]"] ;
683 -> 684 ;
685 [label="url_of_anchor <= 0.5\ngini = 0.124\nsamples = 15\nvalue = [14, 1]"] ;
684 -> 685 ;
686 [label="gini = 0.0\nsamples = 14\nvalue = [14, 0]"] ;
685 -> 686 ;
687 [label="gini = 0.0\nsamples = 1\nvalue = [0, 1]"] ;
685 -> 687 ;
688 [label="gini = 0.0\nsamples = 11\nvalue = [0, 11]"] ;
684 -> 688 ;
689 [label="domain_registration_length <= 0.0\ngini = 0.105\nsamples = 54\nvalue = [3, 51]"] ;
683 -> 689 ;
690 [label="gini = 0.0\nsamples = 29\nvalue = [0, 29]"] ;
689 -> 690 ;
691 [label="request_url <= 0.0\ngini = 0.211\nsamples = 25\nvalue = [3, 22]"] ;
689 -> 691 ;
692 [label="gini = 0.0\nsamples = 22\nvalue = [0, 22]"] ;
691 -> 692 ;
693 [label="gini = 0.0\nsamples = 3\nvalue = [3, 0]"] ;
691 -> 693 ;
694 [label="having_sub_domain <= -0.5\ngini = 0.049\nsamples = 79\nvalue = [2, 77]"] ;
682 -> 694 ;
695 [label="gini = 0.0\nsamples = 63\nvalue = [0, 63]"] ;
694 -> 695 ;
696 [label="request_url <= 0.0\ngini = 0.219\nsamples = 16\nvalue = [2, 14]"] ;
694 -> 696 ;
697 [label="gini = 0.0\nsamples = 7\nvalue = [0, 7]"] ;
696 -> 697 ;
698 [label="https_token <= 0.0\ngini = 0.346\nsamples = 9\nvalue = [2, 7]"] ;
696 -> 698 ;
699 [label="gini = 0.0\nsamples = 4\nvalue = [0, 4]"] ;
698 -> 699 ;
700 [label="gini = 0.48\nsamples = 5\nvalue = [2, 3]"] ;
698 -> 700 ;
701 [label="prefix_suffix <= 0.0\ngini = 0.45\nsamples = 155\nvalue = [53, 102]"] ;
681 -> 701 ;
702 [label="request_url <= 0.0\ngini = 0.481\nsamples = 132\nvalue = [53, 79]"] ;
701 -> 702 ;
703 [label="abnormal_url <= 0.0\ngini = 0.487\nsamples = 50\nvalue = [29.0, 21.0]"] ;
702 -> 703 ;
704 [label="gini = 0.0\nsamples = 3\nvalue = [0, 3]"] ;
703 -> 704 ;
705 [label="having_ip_address <= 0.0\ngini = 0.473\nsamples = 47\nvalue = [29, 18]"] ;
703 -> 705 ;
706 [label="url_of_anchor <= 0.5\ngini = 0.245\nsamples = 14\nvalue = [12, 2]"] ;
705 -> 706 ;
707 [label="gini = 0.0\nsamples = 8\nvalue = [8, 0]"] ;
706 -> 707 ;
708 [label="age_of_domain <= 0.0\ngini = 0.444\nsamples = 6\nvalue = [4, 2]"] ;
706 -> 708 ;
709 [label="having_sub_domain <= -0.5\ngini = 0.444\nsamples = 3\nvalue = [1, 2]"] ;
708 -> 709 ;
710 [label="gini = 0.0\nsamples = 2\nvalue = [0, 2]"] ;
709 -> 710 ;
711 [label="gini = 0.0\nsamples = 1\nvalue = [1, 0]"] ;
709 -> 711 ;
712 [label="gini = 0.0\nsamples = 3\nvalue = [3, 0]"] ;
708 -> 712 ;
713 [label="age_of_domain <= 0.0\ngini = 0.5\nsamples = 33\nvalue = [17, 16]"] ;
705 -> 713 ;
714 [label="having_sub_domain <= -0.5\ngini = 0.434\nsamples = 22\nvalue = [15.0, 7.0]"] ;
713 -> 714 ;
715 [label="gini = 0.0\nsamples = 11\nvalue = [11, 0]"] ;
714 -> 715 ;
716 [label="domain_registration_length <= 0.0\ngini = 0.463\nsamples = 11\nvalue = [4, 7]"] ;
714 -> 716 ;
717 [label="gini = 0.32\nsamples = 5\nvalue = [1, 4]"] ;
716 -> 717 ;
718 [label="gini = 0.5\nsamples = 6\nvalue = [3, 3]"] ;
716 -> 718 ;
719 [label="url_of_anchor <= 0.5\ngini = 0.298\nsamples = 11\nvalue = [2, 9]"] ;
713 -> 719 ;
720 [label="having_sub_domain <= -0.5\ngini = 0.18\nsamples = 10\nvalue = [1, 9]"] ;
719 -> 720 ;
721 [label="gini = 0.0\nsamples = 7\nvalue = [0, 7]"] ;
720 -> 721 ;
722 [label="domain_registration_length <= 0.0\ngini = 0.444\nsamples = 3\nvalue = [1, 2]"] ;
720 -> 722 ;
723 [label="gini = 0.0\nsamples = 1\nvalue = [1, 0]"] ;
722 -> 723 ;
724 [label="gini = 0.0\nsamples = 2\nvalue = [0, 2]"] ;
722 -> 724 ;
725 [label="gini = 0.0\nsamples = 1\nvalue = [1, 0]"] ;
719 -> 725 ;
726 [label="favicon <= 0.0\ngini = 0.414\nsamples = 82\nvalue = [24, 58]"] ;
702 -> 726 ;
727 [label="domain_registration_length <= 0.0\ngini = 0.133\nsamples = 14\nvalue = [1, 13]"] ;
726 -> 727 ;
728 [label="gini = 0.0\nsamples = 13\nvalue = [0, 13]"] ;
727 -> 728 ;
729 [label="gini = 0.0\nsamples = 1\nvalue = [1, 0]"] ;
727 -> 729 ;
730 [label="url_of_anchor <= 0.5\ngini = 0.448\nsamples = 68\nvalue = [23, 45]"] ;
726 -> 730 ;
731 [label="url_length <= 0.0\ngini = 0.464\nsamples = 63\nvalue = [23, 40]"] ;
730 -> 731 ;
732 [label="submitting_to_email <= 0.0\ngini = 0.482\nsamples = 52\nvalue = [21, 31]"] ;
731 -> 732 ;
733 [label="gini = 0.0\nsamples = 2\nvalue = [2, 0]"] ;
732 -> 733 ;
734 [label="age_of_domain <= 0.0\ngini = 0.471\nsamples = 50\nvalue = [19, 31]"] ;
732 -> 734 ;
735 [label="domain_registration_length <= 0.0\ngini = 0.413\nsamples = 24\nvalue = [7, 17]"] ;
734 -> 735 ;
736 [label="having_sub_domain <= -0.5\ngini = 0.386\nsamples = 23\nvalue = [6, 17]"] ;
735 -> 736 ;
737 [label="having_ip_address <= 0.0\ngini = 0.42\nsamples = 10\nvalue = [3, 7]"] ;
736 -> 737 ;
738 [label="gini = 0.0\nsamples = 1\nvalue = [0, 1]"] ;
737 -> 738 ;
739 [label="gini = 0.444\nsamples = 9\nvalue = [3, 6]"] ;
737 -> 739 ;
740 [label="having_ip_address <= 0.0\ngini = 0.355\nsamples = 13\nvalue = [3, 10]"] ;
736 -> 740 ;
741 [label="gini = 0.5\nsamples = 2\nvalue = [1, 1]"] ;
740 -> 741 ;
742 [label="gini = 0.298\nsamples = 11\nvalue = [2, 9]"] ;
740 -> 742 ;
743 [label="gini = 0.0\nsamples = 1\nvalue = [1, 0]"] ;
735 -> 743 ;
744 [label="domain_registration_length <= 0.0\ngini = 0.497\nsamples = 26\nvalue = [12, 14]"] ;
734 -> 744 ;
745 [label="having_ip_address <= 0.0\ngini = 0.499\nsamples = 23\nvalue = [12, 11]"] ;
744 -> 745 ;
746 [label="gini = 0.0\nsamples = 2\nvalue = [2, 0]"] ;
745 -> 746 ;
747 [label="having_sub_domain <= -0.5\ngini = 0.499\nsamples = 21\nvalue = [10, 11]"] ;
745 -> 747 ;
748 [label="gini = 0.48\nsamples = 10\nvalue = [4, 6]"] ;
747 -> 748 ;
749 [label="gini = 0.496\nsamples = 11\nvalue = [6, 5]"] ;
747 -> 749 ;
750 [label="gini = 0.0\nsamples = 3\nvalue = [0, 3]"] ;
744 -> 750 ;
751 [label="popupwindow <= 0.0\ngini = 0.298\nsamples = 11\nvalue = [2, 9]"] ;
731 -> 751 ;
752 [label="gini = 0.0\nsamples = 1\nvalue = [1, 0]"] ;
751 -> 752 ;
753 [label="submitting_to_email <= 0.0\ngini = 0.18\nsamples = 10\nvalue = [1, 9]"] ;
751 -> 753 ;
754 [label="gini = 0.0\nsamples = 4\nvalue = [0, 4]"] ;
753 -> 754 ;
755 [label="having_sub_domain <= -0.5\ngini = 0.278\nsamples = 6\nvalue = [1, 5]"] ;
753 -> 755 ;
756 [label="gini = 0.0\nsamples = 4\nvalue = [0, 4]"] ;
755 -> 756 ;
757 [label="having_ip_address <= 0.0\ngini = 0.5\nsamples = 2\nvalue = [1, 1]"] ;
755 -> 757 ;
758 [label="gini = 0.0\nsamples = 1\nvalue = [0, 1]"] ;
757 -> 758 ;
759 [label="gini = 0.0\nsamples = 1\nvalue = [1, 0]"] ;
757 -> 759 ;
760 [label="gini = 0.0\nsamples = 5\nvalue = [0, 5]"] ;
730 -> 760 ;
761 [label="gini = 0.0\nsamples = 23\nvalue = [0, 23]"] ;
701 -> 761 ;
762 [label="gini = 0.0\nsamples = 126\nvalue = [0, 126]"] ;
680 -> 762 ;
763 [label="request_url <= 0.0\ngini = 0.036\nsamples = 381\nvalue = [7, 374]"] ;
679 -> 763 ;
764 [label="having_ip_address <= 0.0\ngini = 0.094\nsamples = 101\nvalue = [5, 96]"] ;
763 -> 764 ;
765 [label="sfh <= -0.5\ngini = 0.18\nsamples = 40\nvalue = [4, 36]"] ;
764 -> 765 ;
766 [label="having_at_symbol <= 0.0\ngini = 0.298\nsamples = 22\nvalue = [4, 18]"] ;
765 -> 766 ;
767 [label="domain_registration_length <= 0.0\ngini = 0.444\nsamples = 3\nvalue = [2, 1]"] ;
766 -> 767 ;
768 [label="gini = 0.0\nsamples = 2\nvalue = [2, 0]"] ;
767 -> 768 ;
769 [label="gini = 0.0\nsamples = 1\nvalue = [0, 1]"] ;
767 -> 769 ;
770 [label="age_of_domain <= 0.0\ngini = 0.188\nsamples = 19\nvalue = [2, 17]"] ;
766 -> 770 ;
771 [label="gini = 0.0\nsamples = 9\nvalue = [0, 9]"] ;
770 -> 771 ;
772 [label="abnormal_url <= 0.0\ngini = 0.32\nsamples = 10\nvalue = [2, 8]"] ;
770 -> 772 ;
773 [label="gini = 0.0\nsamples = 6\nvalue = [0, 6]"] ;
772 -> 773 ;
774 [label="popupwindow <= 0.0\ngini = 0.5\nsamples = 4\nvalue = [2, 2]"] ;
772 -> 774 ;
775 [label="gini = 0.0\nsamples = 2\nvalue = [0, 2]"] ;
774 -> 775 ;
776 [label="gini = 0.0\nsamples = 2\nvalue = [2, 0]"] ;
774 -> 776 ;
777 [label="gini = 0.0\nsamples = 18\nvalue = [0, 18]"] ;
765 -> 777 ;
778 [label="url_of_anchor <= 0.5\ngini = 0.032\nsamples = 61\nvalue = [1, 60]"] ;
764 -> 778 ;
779 [label="sfh <= -0.5\ngini = 0.057\nsamples = 34\nvalue = [1, 33]"] ;
778 -> 779 ;
780 [label="age_of_domain <= 0.0\ngini = 0.111\nsamples = 17\nvalue = [1, 16]"] ;
779 -> 780 ;
781 [label="gini = 0.0\nsamples = 6\nvalue = [0, 6]"] ;
780 -> 781 ;
782 [label="domain_registration_length <= 0.0\ngini = 0.165\nsamples = 11\nvalue = [1, 10]"] ;
780 -> 782 ;
783 [label="gini = 0.0\nsamples = 4\nvalue = [0, 4]"] ;
782 -> 783 ;
784 [label="gini = 0.245\nsamples = 7\nvalue = [1, 6]"] ;
782 -> 784 ;
785 [label="gini = 0.0\nsamples = 17\nvalue = [0, 17]"] ;
779 -> 785 ;
786 [label="gini = 0.0\nsamples = 27\nvalue = [0, 27]"] ;
778 -> 786 ;
787 [label="rightclick <= 0.0\ngini = 0.014\nsamples = 280\nvalue = [2, 278]"] ;
763 -> 787 ;
788 [label="url_of_anchor <= 0.5\ngini = 0.095\nsamples = 20\nvalue = [1, 19]"] ;
787 -> 788 ;
789 [label="gini = 0.0\nsamples = 19\nvalue = [0, 19]"] ;
788 -> 789 ;
790 [label="gini = 0.0\nsamples = 1\nvalue = [1, 0]"] ;
788 -> 790 ;
791 [label="redirect <= 0.5\ngini = 0.008\nsamples = 260\nvalue = [1, 259]"] ;
787 -> 791 ;
792 [label="gini = 0.0\nsamples = 225\nvalue = [0, 225]"] ;
791 -> 792 ;
793 [label="age_of_domain <= 0.0\ngini = 0.056\nsamples = 35\nvalue = [1, 34]"] ;
791 -> 793 ;
794 [label="having_ip_address <= 0.0\ngini = 0.198\nsamples = 9\nvalue = [1, 8]"] ;
793 -> 794 ;
795 [label="gini = 0.0\nsamples = 5\nvalue = [0, 5]"] ;
794 -> 795 ;
796 [label="url_of_anchor <= 0.5\ngini = 0.375\nsamples = 4\nvalue = [1, 3]"] ;
794 -> 796 ;
797 [label="sfh <= 0.0\ngini = 0.5\nsamples = 2\nvalue = [1, 1]"] ;
796 -> 797 ;
798 [label="gini = 0.0\nsamples = 1\nvalue = [1, 0]"] ;
797 -> 798 ;
799 [label="gini = 0.0\nsamples = 1\nvalue = [0, 1]"] ;
797 -> 799 ;
800 [label="gini = 0.0\nsamples = 2\nvalue = [0, 2]"] ;
796 -> 800 ;
801 [label="gini = 0.0\nsamples = 26\nvalue = [0, 26]"] ;
793 -> 801 ;
802 [label="having_ip_address <= 0.0\ngini = 0.027\nsamples = 2241\nvalue = [31, 2210]"] ;
678 -> 802 ;
803 [label="https_token <= 0.0\ngini = 0.068\nsamples = 592\nvalue = [21, 571]"] ;
802 -> 803 ;
804 [label="shortining_service <= 0.0\ngini = 0.014\nsamples = 285\nvalue = [2, 283]"] ;
803 -> 804 ;
805 [label="url_length <= 0.5\ngini = 0.007\nsamples = 269\nvalue = [1, 268]"] ;
804 -> 805 ;
806 [label="gini = 0.0\nsamples = 221\nvalue = [0, 221]"] ;
805 -> 806 ;
807 [label="sfh <= -0.5\ngini = 0.041\nsamples = 48\nvalue = [1, 47]"] ;
805 -> 807 ;
808 [label="having_sub_domain <= 0.5\ngini = 0.117\nsamples = 16\nvalue = [1, 15]"] ;
807 -> 808 ;
809 [label="redirect <= 0.5\ngini = 0.375\nsamples = 4\nvalue = [1, 3]"] ;
808 -> 809 ;
810 [label="gini = 0.0\nsamples = 3\nvalue = [0, 3]"] ;
809 -> 810 ;
811 [label="gini = 0.0\nsamples = 1\nvalue = [1, 0]"] ;
809 -> 811 ;
812 [label="gini = 0.0\nsamples = 12\nvalue = [0, 12]"] ;
808 -> 812 ;
813 [label="gini = 0.0\nsamples = 32\nvalue = [0, 32]"] ;
807 -> 813 ;
814 [label="double_slash_redirecting <= 0.0\ngini = 0.117\nsamples = 16\nvalue = [1, 15]"] ;
804 -> 814 ;
815 [label="favicon <= 0.0\ngini = 0.375\nsamples = 4\nvalue = [1, 3]"] ;
814 -> 815 ;
816 [label="gini = 0.0\nsamples = 3\nvalue = [0, 3]"] ;
815 -> 816 ;
817 [label="gini = 0.0\nsamples = 1\nvalue = [1, 0]"] ;
815 -> 817 ;
818 [label="gini = 0.0\nsamples = 12\nvalue = [0, 12]"] ;
814 -> 818 ;
819 [label="age_of_domain <= 0.0\ngini = 0.116\nsamples = 307\nvalue = [19, 288]"] ;
803 -> 819 ;
820 [label="sfh <= -0.5\ngini = 0.024\nsamples = 164\nvalue = [2, 162]"] ;
819 -> 820 ;
821 [label="domain_registration_length <= 0.0\ngini = 0.046\nsamples = 85\nvalue = [2, 83]"] ;
820 -> 821 ;
822 [label="having_sub_domain <= 0.5\ngini = 0.027\nsamples = 74\nvalue = [1, 73]"] ;
821 -> 822 ;
823 [label="links_in_tags <= 0.5\ngini = 0.057\nsamples = 34\nvalue = [1, 33]"] ;
822 -> 823 ;
824 [label="prefix_suffix <= 0.0\ngini = 0.105\nsamples = 18\nvalue = [1, 17]"] ;
823 -> 824 ;
825 [label="popupwindow <= 0.0\ngini = 0.198\nsamples = 9\nvalue = [1, 8]"] ;
824 -> 825 ;
826 [label="gini = 0.0\nsamples = 3\nvalue = [0, 3]"] ;
825 -> 826 ;
827 [label="request_url <= 0.0\ngini = 0.278\nsamples = 6\nvalue = [1, 5]"] ;
825 -> 827 ;
828 [label="gini = 0.0\nsamples = 1\nvalue = [0, 1]"] ;
827 -> 828 ;
829 [label="gini = 0.32\nsamples = 5\nvalue = [1, 4]"] ;
827 -> 829 ;
830 [label="gini = 0.0\nsamples = 9\nvalue = [0, 9]"] ;
824 -> 830 ;
831 [label="gini = 0.0\nsamples = 16\nvalue = [0, 16]"] ;
823 -> 831 ;
832 [label="gini = 0.0\nsamples = 40\nvalue = [0, 40]"] ;
822 -> 832 ;
833 [label="submitting_to_email <= 0.0\ngini = 0.165\nsamples = 11\nvalue = [1, 10]"] ;
821 -> 833 ;
834 [label="prefix_suffix <= 0.0\ngini = 0.375\nsamples = 4\nvalue = [1, 3]"] ;
833 -> 834 ;
835 [label="rightclick <= 0.0\ngini = 0.5\nsamples = 2\nvalue = [1, 1]"] ;
834 -> 835 ;
836 [label="gini = 0.0\nsamples = 1\nvalue = [0, 1]"] ;
835 -> 836 ;
837 [label="gini = 0.0\nsamples = 1\nvalue = [1, 0]"] ;
835 -> 837 ;
838 [label="gini = 0.0\nsamples = 2\nvalue = [0, 2]"] ;
834 -> 838 ;
839 [label="gini = 0.0\nsamples = 7\nvalue = [0, 7]"] ;
833 -> 839 ;
840 [label="gini = 0.0\nsamples = 79\nvalue = [0, 79]"] ;
820 -> 840 ;
841 [label="having_sub_domain <= 0.5\ngini = 0.209\nsamples = 143\nvalue = [17, 126]"] ;
819 -> 841 ;
842 [label="sfh <= -0.5\ngini = 0.348\nsamples = 67\nvalue = [15, 52]"] ;
841 -> 842 ;
843 [label="prefix_suffix <= 0.0\ngini = 0.425\nsamples = 49\nvalue = [15, 34]"] ;
842 -> 843 ;
844 [label="iframe <= 0.0\ngini = 0.486\nsamples = 36\nvalue = [15, 21]"] ;
843 -> 844 ;
845 [label="gini = 0.0\nsamples = 7\nvalue = [0, 7]"] ;
844 -> 845 ;
846 [label="having_sub_domain <= -0.5\ngini = 0.499\nsamples = 29\nvalue = [15.0, 14.0]"] ;
844 -> 846 ;
847 [label="domain_registration_length <= 0.0\ngini = 0.375\nsamples = 8\nvalue = [2, 6]"] ;
846 -> 847 ;
848 [label="gini = 0.0\nsamples = 6\nvalue = [0, 6]"] ;
847 -> 848 ;
849 [label="gini = 0.0\nsamples = 2\nvalue = [2, 0]"] ;
847 -> 849 ;
850 [label="url_of_anchor <= 0.5\ngini = 0.472\nsamples = 21\nvalue = [13, 8]"] ;
846 -> 850 ;
851 [label="request_url <= 0.0\ngini = 0.432\nsamples = 19\nvalue = [13, 6]"] ;
850 -> 851 ;
852 [label="gini = 0.0\nsamples = 1\nvalue = [1, 0]"] ;
851 -> 852 ;
853 [label="abnormal_url <= 0.0\ngini = 0.444\nsamples = 18\nvalue = [12, 6]"] ;
851 -> 853 ;
854 [label="gini = 0.0\nsamples = 1\nvalue = [1, 0]"] ;
853 -> 854 ;
855 [label="on_mouseover <= 0.0\ngini = 0.457\nsamples = 17\nvalue = [11, 6]"] ;
853 -> 855 ;
856 [label="gini = 0.0\nsamples = 1\nvalue = [0, 1]"] ;
855 -> 856 ;
857 [label="shortining_service <= 0.0\ngini = 0.43\nsamples = 16\nvalue = [11, 5]"] ;
855 -> 857 ;
858 [label="gini = 0.0\nsamples = 1\nvalue = [1, 0]"] ;
857 -> 858 ;
859 [label="popupwindow <= 0.0\ngini = 0.444\nsamples = 15\nvalue = [10, 5]"] ;
857 -> 859 ;
860 [label="gini = 0.0\nsamples = 1\nvalue = [1, 0]"] ;
859 -> 860 ;
861 [label="url_length <= 0.0\ngini = 0.459\nsamples = 14\nvalue = [9, 5]"] ;
859 -> 861 ;
862 [label="links_in_tags <= 0.5\ngini = 0.426\nsamples = 13\nvalue = [9, 4]"] ;
861 -> 862 ;
863 [label="domain_registration_length <= 0.0\ngini = 0.346\nsamples = 9\nvalue = [7, 2]"] ;
862 -> 863 ;
864 [label="gini = 0.278\nsamples = 6\nvalue = [5, 1]"] ;
863 -> 864 ;
865 [label="gini = 0.444\nsamples = 3\nvalue = [2, 1]"] ;
863 -> 865 ;
866 [label="gini = 0.5\nsamples = 4\nvalue = [2, 2]"] ;
862 -> 866 ;
867 [label="gini = 0.0\nsamples = 1\nvalue = [0, 1]"] ;
861 -> 867 ;
868 [label="gini = 0.0\nsamples = 2\nvalue = [0, 2]"] ;
850 -> 868 ;
869 [label="gini = 0.0\nsamples = 13\nvalue = [0, 13]"] ;
843 -> 869 ;
870 [label="gini = 0.0\nsamples = 18\nvalue = [0, 18]"] ;
842 -> 870 ;
871 [label="domain_registration_length <= 0.0\ngini = 0.051\nsamples = 76\nvalue = [2, 74]"] ;
841 -> 871 ;
872 [label="gini = 0.0\nsamples = 64\nvalue = [0, 64]"] ;
871 -> 872 ;
873 [label="having_at_symbol <= 0.0\ngini = 0.278\nsamples = 12\nvalue = [2, 10]"] ;
871 -> 873 ;
874 [label="gini = 0.0\nsamples = 2\nvalue = [2, 0]"] ;
873 -> 874 ;
875 [label="gini = 0.0\nsamples = 10\nvalue = [0, 10]"] ;
873 -> 875 ;
876 [label="url_of_anchor <= 0.5\ngini = 0.012\nsamples = 1649\nvalue = [10, 1639]"] ;
802 -> 876 ;
877 [label="on_mouseover <= 0.0\ngini = 0.021\nsamples = 965\nvalue = [10, 955]"] ;
876 -> 877 ;
878 [label="domain_registration_length <= 0.0\ngini = 0.07\nsamples = 83\nvalue = [3, 80]"] ;
877 -> 878 ;
879 [label="gini = 0.0\nsamples = 67\nvalue = [0, 67]"] ;
878 -> 879 ;
880 [label="prefix_suffix <= 0.0\ngini = 0.305\nsamples = 16\nvalue = [3, 13]"] ;
878 -> 880 ;
881 [label="links_in_tags <= 0.5\ngini = 0.49\nsamples = 7\nvalue = [3, 4]"] ;
880 -> 881 ;
882 [label="gini = 0.0\nsamples = 4\nvalue = [0, 4]"] ;
881 -> 882 ;
883 [label="gini = 0.0\nsamples = 3\nvalue = [3, 0]"] ;
881 -> 883 ;
884 [label="gini = 0.0\nsamples = 9\nvalue = [0, 9]"] ;
880 -> 884 ;
885 [label="having_sub_domain <= 0.5\ngini = 0.016\nsamples = 882\nvalue = [7, 875]"] ;
877 -> 885 ;
886 [label="having_at_symbol <= 0.0\ngini = 0.027\nsamples = 511\nvalue = [7, 504]"] ;
885 -> 886 ;
887 [label="url_length <= 0.0\ngini = 0.1\nsamples = 38\nvalue = [2, 36]"] ;
886 -> 887 ;
888 [label="age_of_domain <= 0.0\ngini = 0.245\nsamples = 14\nvalue = [2, 12]"] ;
887 -> 888 ;
889 [label="gini = 0.0\nsamples = 11\nvalue = [0, 11]"] ;
888 -> 889 ;
890 [label="popupwindow <= 0.0\ngini = 0.444\nsamples = 3\nvalue = [2, 1]"] ;
888 -> 890 ;
891 [label="gini = 0.0\nsamples = 1\nvalue = [0, 1]"] ;
890 -> 891 ;
892 [label="gini = 0.0\nsamples = 2\nvalue = [2, 0]"] ;
890 -> 892 ;
893 [label="gini = 0.0\nsamples = 24\nvalue = [0, 24]"] ;
887 -> 893 ;
894 [label="request_url <= 0.0\ngini = 0.021\nsamples = 473\nvalue = [5, 468]"] ;
886 -> 894 ;
895 [label="domain_registration_length <= 0.0\ngini = 0.045\nsamples = 129\nvalue = [3, 126]"] ;
894 -> 895 ;
896 [label="dnsrecord <= 0.0\ngini = 0.133\nsamples = 42\nvalue = [3, 39]"] ;
895 -> 896 ;
897 [label="having_sub_domain <= -0.5\ngini = 0.26\nsamples = 13\nvalue = [2, 11]"] ;
896 -> 897 ;
898 [label="age_of_domain <= 0.0\ngini = 0.5\nsamples = 4\nvalue = [2, 2]"] ;
897 -> 898 ;
899 [label="gini = 0.0\nsamples = 2\nvalue = [2, 0]"] ;
898 -> 899 ;
900 [label="gini = 0.0\nsamples = 2\nvalue = [0, 2]"] ;
898 -> 900 ;
901 [label="gini = 0.0\nsamples = 9\nvalue = [0, 9]"] ;
897 -> 901 ;
902 [label="age_of_domain <= 0.0\ngini = 0.067\nsamples = 29\nvalue = [1, 28]"] ;
896 -> 902 ;
903 [label="gini = 0.0\nsamples = 21\nvalue = [0, 21]"] ;
902 -> 903 ;
904 [label="having_sub_domain <= -0.5\ngini = 0.219\nsamples = 8\nvalue = [1, 7]"] ;
902 -> 904 ;
905 [label="gini = 0.0\nsamples = 7\nvalue = [0, 7]"] ;
904 -> 905 ;
906 [label="gini = 0.0\nsamples = 1\nvalue = [1, 0]"] ;
904 -> 906 ;
907 [label="gini = 0.0\nsamples = 87\nvalue = [0, 87]"] ;
895 -> 907 ;
908 [label="having_sub_domain <= -0.5\ngini = 0.012\nsamples = 344\nvalue = [2, 342]"] ;
894 -> 908 ;
909 [label="gini = 0.0\nsamples = 199\nvalue = [0, 199]"] ;
908 -> 909 ;
910 [label="age_of_domain <= 0.0\ngini = 0.027\nsamples = 145\nvalue = [2, 143]"] ;
908 -> 910 ;
911 [label="gini = 0.0\nsamples = 111\nvalue = [0, 111]"] ;
910 -> 911 ;
912 [label="prefix_suffix <= 0.0\ngini = 0.111\nsamples = 34\nvalue = [2, 32]"] ;
910 -> 912 ;
913 [label="links_in_tags <= 0.5\ngini = 0.165\nsamples = 22\nvalue = [2, 20]"] ;
912 -> 913 ;
914 [label="dnsrecord <= 0.0\ngini = 0.117\nsamples = 16\nvalue = [1, 15]"] ;
913 -> 914 ;
915 [label="gini = 0.0\nsamples = 3\nvalue = [0, 3]"] ;
914 -> 915 ;
916 [label="domain_registration_length <= 0.0\ngini = 0.142\nsamples = 13\nvalue = [1, 12]"] ;
914 -> 916 ;
917 [label="url_length <= 0.0\ngini = 0.153\nsamples = 12\nvalue = [1, 11]"] ;
916 -> 917 ;
918 [label="gini = 0.165\nsamples = 11\nvalue = [1, 10]"] ;
917 -> 918 ;
919 [label="gini = 0.0\nsamples = 1\nvalue = [0, 1]"] ;
917 -> 919 ;
920 [label="gini = 0.0\nsamples = 1\nvalue = [0, 1]"] ;
916 -> 920 ;
921 [label="https_token <= 0.0\ngini = 0.278\nsamples = 6\nvalue = [1, 5]"] ;
913 -> 921 ;
922 [label="gini = 0.0\nsamples = 3\nvalue = [0, 3]"] ;
921 -> 922 ;
923 [label="url_length <= 0.0\ngini = 0.444\nsamples = 3\nvalue = [1, 2]"] ;
921 -> 923 ;
924 [label="gini = 0.0\nsamples = 1\nvalue = [1, 0]"] ;
923 -> 924 ;
925 [label="gini = 0.0\nsamples = 2\nvalue = [0, 2]"] ;
923 -> 925 ;
926 [label="gini = 0.0\nsamples = 12\nvalue = [0, 12]"] ;
912 -> 926 ;
927 [label="gini = 0.0\nsamples = 371\nvalue = [0, 371]"] ;
885 -> 927 ;
928 [label="gini = 0.0\nsamples = 684\nvalue = [0, 684]"] ;
876 -> 928 ;
}